svm_type c_svc
kernel_type linear
nr_class 14
total_sv 516
rho 0.38534786979954117 0.30746679648435393 0.36245359394325549 0.182624044151835 0.44540096280785652 0.56459238389828381 0.37549410218538809 -0.00020755919074200301 0.30367422728888754 0.086631884117031766 0.047132447396885428 0.3048104039751256 0.067768800723018802 -0.18987505017666695 -0.1888358044159851 -0.27413849718893429 -0.1437224147040061 -0.035832812858119872 -0.058421106318983569 -0.50229470753272598 -0.3244370371056356 -0.3022292550915357 -0.58488099975966157 -0.39556125546906534 -0.48371557709168234 0.091008995990742872 -0.05091740428143423 0.11650968704195426 0.30507928905504372 0.1838679662623264 -0.518855517783677 -0.073516102497255167 -0.08382894204083581 -0.26246843715589857 0.050408943023972488 -0.44685743025939217 -0.13871042653689342 -0.041677208920743128 0.094473765687418554 0.15499525930494693 -0.50913654211015891 -0.10696555401189324 -0.25872560338864581 -0.48897494289669946 -0.018261239978740136 -0.44584825698797803 0.17454317398329186 0.23588402441496448 0.21252153595574624 -0.27090105308992013 0.05052997220479144 -0.088400512771078035 -0.30792048725761206 0.04327960060185905 -0.22634388771954145 0.26060747744045976 0.088419297287223447 -0.49300754977111261 -0.10129042393611487 -0.22310856998679729 -0.39579157264566456 -0.098250619776881654 -0.51719087857166013 -0.10526363908794252 -0.44594544420027782 -0.30778296424356982 -0.28337276961223418 -0.4978270187161013 -0.23364878917117909 -0.7036288963183065 -0.36818560449648735 -0.20606886384861375 -0.27581048398512953 -0.35594362790650352 -0.16397754812793561 -0.33610373933239418 0.51166067365837176 0.25555563250334795 -0.041612483406764794 0.36479878748485323 -0.00094192316195123226 -0.16433886357560903 -0.24055582626511279 -0.020244931196732947 -0.36863033845110776 -0.14365227151812263 0.12089622837357306 -0.17749233621546379 0.27782447552733319 0.087070630881154534 -0.42663569202375506
label 0 1 2 3 4 5 6 7 8 9 10 11 12 13
probA -4.2622833109082539 -4.238129272574743 -4.3209278010507868 -4.33602208423435 -4.313762214363611 -4.293763203216967 -3.7274962631821671 -4.3266974784524814 -4.2820537348076879 -4.3428760067318821 -4.2898864984614207 -4.261768438672199 -4.2749953792992645 -4.1436343949478465 -4.0126204409162733 -4.1501673839039341 -4.045468403487134 -4.1101487655423856 -4.6970685881049574 -4.2158226072095717 -4.1344815716449252 -4.284419682256206 -4.0676022177232838 -4.3204397047618048 -4.2342741501157226 -4.1270365580761821 -4.1664431343046671 -4.2446785703737202 -3.9849645427578202 -3.8312539954843459 -4.2876202383081532 -4.1754969787040315 -4.0461009789563631 -4.1493221718302316 -4.1793282103734697 -4.1885497932350857 -4.0703492608970553 -4.1156992689227225 -4.1447852218940104 -4.0093435888793776 -4.3223203957802099 -4.2699408391320226 -4.2360400290663565 -4.1652781877741312 -4.1464141850878757 -4.229880666091745 -3.9743877998174848 -4.1857449855411897 -3.9174436980462897 -4.2436467123183723 -4.1517501313763105 -4.3149896990573593 -4.2322968533606984 -4.2275129927388271 -4.2353808058778784 -4.1841250522605691 -4.2206321223088734 -4.3128103301603407 -4.1927793457786571 -4.1057048257524844 -4.138125065700593 -4.3189590148517132 -4.330404666707194 -4.5908239653564307 -4.1501297982470451 -4.2420847982335408 -4.2484777951798387 -4.1768242467364942 -4.1764087413469788 -4.236516036249121 -3.718229805399401 -4.2598876525714946 -3.6564076853183556 -3.6695400550588357 -4.0699522380362243 -3.8425138819454525 -4.1724432225374173 -4.2616128368817705 -4.2987296364612995 -4.2544607760744029 -4.2542775950038267 -4.1776630787751428 -4.1709070885542863 -4.1675137855982669 -4.2518458510007324 -4.2897238311058619 -4.3034414400602055 -4.1903328082311244 -4.1524356765182793 -4.2396736420293362 -4.322988861712421
probB 0.046333719852751823 0.032961445977502078 0.044897568195826999 0.030441238913396451 0.013290023335233039 0.058950153458511838 -0.49272602648972535 0.04356368346493604 -0.0011842103521897238 -0.00746049089617632 0.0024531303864202972 -0.040159924983458023 0.070436865929691811 -0.099828484730975012 -0.39050787111396934 -0.012808374133268092 0.031419010396597793 -0.033740843911303296 0.48301540254584135 0.095723573795352776 -0.14545586268359545 -0.091330210039443457 0.078805513976571914 -0.093187194373825027 0.062361510834054612 0.11621535455597931 -0.024474060388185639 0.082679695326918282 -0.08539228188132103 -0.33403158824954887 -0.0041352090874505077 -0.042169698613235607 -0.1012226820995691 0.04109710670189895 -0.012800781192292894 0.043345246831502003 0.071897643550198884 -0.14098291011201561 -0.15049457743667116 -0.20254867038517427 0.011173186916023215 -0.21201582746647604 -0.070915307704666225 -0.0095813666159978352 -0.24276238049832916 -0.027106024112118862 0.06162636113943025 -0.082681072148649518 -0.29362369462637261 0.062881161952363512 -0.052204086934712506 -0.00068973350088750475 0.022604804791160216 0.020527490925123015 0.023730966168854561 0.097217142121298311 0.24814043656206777 0.0044208033035471215 -0.17011754393231904 -0.16561650149853296 -0.092735933760427283 -0.06268393317487278 0.057290734246844166 0.70558808452425326 0.22026572076396064 -0.051703844845862532 -0.0439742979467223 -0.077369884879138262 0.068084841703764346 0.1652501347384035 0.67043235071803953 -0.2686146903113284 0.65762381087603483 0.50276732178912109 -0.14101221089882304 0.45445222244341971 -0.089059431843891826 -0.078653035405816266 -0.10987762363063029 -0.10816873511040771 -0.013224181862329369 -0.057849272974755554 -0.054723690338675544 0.041003883553579333 0.00046898058274510139 0.00038957639881129512 0.024391646474695008 0.0669900016492882 0.062601910293133126 0.14052946751003823 0.043202688161410187
nr_sv 28 27 38 56 46 47 34 7 46 45 33 35 40 34
SV
0.20351878521722075 0.4618828350147498 0.23842163490409743 0 1 0.09067678422835565 0.50590076657956318 0 0.32841806417945751 0 0.49655095858372855 0.8421887661770856 0 0:-0.00242 1:-0.0631 2:0.03838 3:-0.12001 4:0.02677 5:0.04792 6:-0.00611 7:-0.02604 8:-0.03056 9:0.02882 10:-0.07342 11:-0.03816 12:-0.04154 13:-0.05833 14:0.00546 15:0.00792 16:0.01612 17:-0.0217 18:0.02184 19:-0.02222 20:-0.00413 21:-0.01664 22:0.02917 23:-0.05287 24:-0.05277 25:0.0274 26:-0.09197 27:-0.00676 28:-0.05933 29:0.04516 30:0.05514 31:-0.04646 32:-0.00878 33:-0.01665 34:-0.01463 35:0.02239 36:-0.03425 37:-0.01667 38:0.04404 39:0.06196 40:-0.01522 41:0.01931 42:-0.00452 43:-0.03719 44:-0.02046 45:0.02997 46:0.015 47:-0.01493 48:-0.00058 49:0.09921 50:0.02888 51:0.00442 52:0.02715 53:0.05093 54:0.00308 55:0.08059 56:0.05655 57:-0.03783 58:0.08673 59:-0.00298 60:-0.01813 61:-0.06459 62:-0.0418 63:0.02167 64:0.04384 65:0.03904 66:-0.0557 67:0.03765 68:0.00846 69:0.00977 70:0.07014 71:0.10352 72:0.08469 73:0.00272 74:-0.0527 75:0.04522 76:4e-05 77:0.00577 78:-0.0835 79:0.01983 80:0.01916 81:-0.03496 82:-0.06068 83:0.00974 84:-0.01465 85:0.02355 86:0.02709 87:-0.08254 88:0.01963 89:-0.00876 90:0.00179 91:-0.05375 92:-0.02807 93:-0.14712 94:-0.02403 95:0.00134 96:0.00376 97:-0.02929 98:0.03786 99:0.04959 100:-0.00505 101:-0.00425 102:-0.03837 103:0.04883 104:0.04975 105:-0.03466 106:0.00692 107:-0.07171 108:-0.02216 109:0.02423 110:-0.04508 111:0.00471 112:-0.10017 113:0.04312 114:-0.07079 115:0.04111 116:-0.06121 117:-0.02144 118:0.09044 119:-0.04197 120:0.00682 121:0.02066 122:-0.02035 123:-0.00329 124:-0.00062 125:0.04546 126:0.02926 127:0.06878 128:0.09668 129:-0.02709 130:0.01673 131:-0.02735 132:0.07136 133:0.03194 134:-0.02495 135:0.00576 136:0.01768 137:0.00222 138:0.05365 139:-0.01443 140:0.02009 141:-0.0502 142:-0.01825 143:-0.01971 144:-0.01757 145:0.14681 146:0.06247 147:0.02363 148:-0.01569 149:0.00188 150:-0.01722 151:0.07797 152:-0.02287 153:-0.03717 154:0.07873 155:-0.06328 156:-0.02635 157:-0.03676 158:0.03411 159:-0.04312 160:-0.02584 161:0.04319 162:0.0401 163:-0.08483 164:0.05852 165:-0.00776 166:-0.006 167:0.02808 168:-0.02394 169:-0.04333 170:-0.05078 171:0.00378 172:0.02636 173:0.00523 174:-0.03955 175:-0.04094 176:0.00078 177:-0.04912 178:0.06485 179:-0.03588 180:0.02117 181:0.00262 182:0.06957 183:0.07463 184:-0.03025 185:-0.02339 186:-0.0018 187:-0.00603 188:0.06034 189:-0.01488 190:0.05027 191:-0.00199 192:0.01759 193:0.00489 194:0.03119 195:0.03398 196:-0.05504 197:0.04601 198:-0.05734 199:-0.09832 200:0.00888 201:-0.06732 202:-0.02107 203:0.09733 204:-0.01101 205:0.03292 206:0.01423 207:-0.02828 208:0.00105 209:-0.04055 210:-0.01566 211:0.01758 212:0.06503 213:0.08295 214:0.05027 215:-0.10351 216:-0.06503 217:0.02743 218:-0.01628 219:-0.00056 220:-0.03376 221:0.02737 222:0.03125 223:-0.00812 224:-0.02458 225:0.04538 226:-0.00128 227:-0.01635 228:0.0682 229:0.01167 230:-0.00063 231:0.01981 232:0.01533 233:0.09509 234:0.05862 235:0.02233 236:0.02597 237:-0.00995 238:0.02471 239:-0.0451 240:0.06257 241:0.02533 242:-0.00121 243:0.03165 244:0.00794 245:-0.02151 246:-0.02128 247:0.02871 248:-0.00479 249:0.03647 250:0.01402 251:-0.02432 252:-0.02051 253:0.01427 254:0.0033 255:-0.02859 256:0.00843 257:0.04945 258:0.07487 259:0.05113 260:-0.03387 261:0.00014 262:-0.00349 263:0.02896 264:-0.02443 265:0.06971 266:0.03198 267:0.01866 268:-0.03891 269:-0.07455 270:-0.00705 271:-0.01051 272:0.01559 273:0.03558 274:-0.00525 275:-0.01633 276:-0.01065 277:0.05611 278:0.02339 279:-0.01883 280:-0.02805 281:0.05333 282:0.03988 283:-0.06437 284:0.02323 285:0.01283 286:-0.00183 287:0.00988 288:-0.02667 289:-0.03098 290:0.05048 291:0.04554 292:-0.05243 293:-0.0132 294:0.02746 295:-0.05257 296:0.03386 297:-0.01272 298:0.0521 299:0.01656 300:0.0025 301:0.04035 302:-0.00779 303:0.08457 304:0.10472 305:-0.02683 306:0.00323 307:-0.00751 308:-0.01803 309:0.00077 310:0.10138 311:-0.08023 312:0.00781 313:0.05279 314:-0.06666 315:-0.02797 316:-0.05813 317:-0.01219 318:0.02841 319:-0.06307 320:-0.00606 321:-0.01566 322:-0.04439 323:-0.0206 324:0.01866 325:-0.03527 326:0.03587 327:-0.01452 328:0.05025 329:0.03033 330:-0.04699 331:-0.06884 332:0.0176 333:-0.01227 334:-0.01094 335:0.06129 336:0.03402 337:0.0393 338:0.0161 339:-0.00306 340:0.02793 341:-0.02672 342:0.00752 343:-0.00028 344:0.0078 345:-0.02035 346:0.0643 347:-0.06689 348:-0.04238 349:0.01065 350:0.01081 351:0.03941 352:0.03792 353:0.03316 354:-0.06018 355:-0.00382 356:-0.04159 357:-0.07399 358:0.0114 359:-0.03162 360:-0.01109 361:-0.0305 362:0.03457 363:-0.07423 364:0.02392 365:0.04099 366:-0.06589 367:0.07081 368:-0.03024 369:0.03515 370:-0.01062 371:0.00034 372:-0.02629 373:0.02376 374:0.00331 375:0.01279 376:-0.10423 377:-0.04812 378:-0.0147 379:0.03092 380:-0.00646 381:0.0239 382:0.00113 383:0.02392 384:0.03157 385:-0.07533 386:0.0277 387:0.00837 388:-0.02097 389:0.01098 390:0.026 391:0.03254 392:0.03206 393:0.02503 394:0.00485 395:-0.00283 396:0.01779 397:0.06727 398:-0.04773 399:-0.00548 400:0.06338 401:0.06909 402:-0.03798 403:-0.04115 404:0.07645 405:0.12262 406:-0.02694 407:0.00931 408:-0.02919 409:0.05074 410:-0.00173 411:-0.00312 412:-0.04273 413:0.01178 414:0.04785 415:-0.05327 416:-0.03349 417:0.00491 418:-0.04431 419:0.05368 420:-0.07073 421:-0.06422 422:-0.06407 423:-0.11439 424:0.04771 425:-0.02335 426:0.08144 427:-0.02899 428:0.05267 429:0.04869 430:-0.03193 431:-0.047 432:-0.06416 433:0.00888 434:-0.09753 435:0.08927 436:0.05337 437:0.03065 438:0.03971 439:0.02775 440:0.02872 441:-0.01141 442:0.00504 443:0.02707 444:-0.04293 445:-0.0562 446:-0.04571 447:0.04857 448:-0.05671 449:0.0287 450:0.0084 451:-0.04835 452:-0.0148 453:-0.00605 454:0.04225 455:0.0498 456:-0.05386 457:-0.07364 458:-0.02556 459:-0.01074 460:-0.08184 461:-0.02482 462:-0.06076 463:-0.08774 464:-0.01055 465:-0.02473 466:0.05191 467:0.1121 468:0.02982 469:0.0297 470:0.07209 471:-0.00223 472:-0.00481 473:0.0576 474:-0.03097 475:-0.03959 476:-0.02014 477:-0.04484 478:-0.05935 479:-0.06263 480:-0.04934 481:-0.01436 482:-0.10644 483:-0.00455 484:-0.0499 485:0.02111 486:0.01983 487:0.00046 488:-0.00627 489:-0.03797 490:-0.11852 491:0.06183 492:-0.03952 493:-0.04083 494:0.01342 495:-0.04024 496:0.04238 497:-0.00263 498:-0.05682 499:0.00561 500:-0.0394 501:0.03781 502:0.06064 503:0.06594 504:-0.03393 505:-0.04693 506:-0.00671 507:-0.03201 508:-0.00659 509:0.01633 510:0.03605 511:0.06798 
0 0 0 0.33128219139707193 0 0 0 0 0 0 0 0 0 0:0.03378 1:-0.04535 2:0.06754 3:-0.17693 4:0.02166 5:0.00325 6:-0.02257 7:0.04741 8:-0.10761 9:0.01268 10:-0.08779 11:0.01047 12:-0.05466 13:-0.11857 14:-0.06288 15:-0.00325 16:0.06195 17:-0.03889 18:0.02176 19:-0.01238 20:-0.01028 21:0.02245 22:0.02049 23:-0.00238 24:-0.05304 25:-0.00142 26:-0.14116 27:-0.01532 28:0.03335 29:-0.0211 30:0.00789 31:-0.04728 32:0.02675 33:0.02829 34:-0.03279 35:0.0274 36:-0.00747 37:0.02809 38:-0.00563 39:0.00874 40:-0.03244 41:-0.01477 42:-0.02832 43:-0.06803 44:-0.02633 45:0.01412 46:-0.02766 47:-0.00177 48:-0.0164 49:0.10719 50:0.01891 51:0.00715 52:-0.00164 53:-0.00074 54:-0.06117 55:0.00868 56:0.02006 57:-0.02403 58:0.09437 59:-0.04362 60:-0.04697 61:-0.07283 62:-0.02968 63:0.03769 64:0.02215 65:0.02851 66:-0.00314 67:0.02188 68:0.0114 69:0.02369 70:0.0601 71:0.09813 72:0.05036 73:-0.01594 74:-0.01062 75:0.03652 76:0.02614 77:0.02103 78:-0.04137 79:0.03866 80:0.01499 81:-0.00888 82:0.03265 83:-0.0049 84:0.00633 85:0.04917 86:0.01238 87:-0.05378 88:-0.02322 89:0.03415 90:0.03319 91:-0.00372 92:-0.03168 93:-0.15799 94:-0.04525 95:-0.06104 96:-0.04941 97:-0.05894 98:0.00318 99:0.01109 100:-0.02214 101:0.05325 102:-0.02596 103:-0.00195 104:0.03604 105:-0.06016 106:-0.00586 107:0.01527 108:-0.00627 109:0.02005 110:0.02386 111:0.06265 112:0.00342 113:0.05739 114:0.00037 115:-3e-05 116:-0.02949 117:0.02137 118:-0.06294 119:-0.09355 120:0.04516 121:0.00745 122:0.00377 123:-0.02848 124:0.02511 125:0.06548 126:0.03543 127:0.01324 128:0.08786 129:-0.02432 130:0.02123 131:0.00678 132:0.1074 133:0.0085 134:-0.05577 135:0.02722 136:0.07905 137:-0.00881 138:0.08131 139:-0.01605 140:-0.02749 141:0.02912 142:0.03472 143:-0.01333 144:-0.00753 145:0.03554 146:0.08058 147:0.01302 148:0.01468 149:0.00597 150:0.03241 151:-0.06807 152:-0.01899 153:-0.01675 154:0.04518 155:-0.03611 156:-0.0031 157:0.00103 158:0.03569 159:0.00892 160:0.00037 161:0.0469 162:-0.02452 163:-0.07158 164:0.02594 165:-0.02056 166:0.00552 167:0.07463 168:0.02006 169:-0.04241 170:0.04319 171:-0.05865 172:-0.01193 173:-0.01809 174:-0.06919 175:-0.01791 176:0.00376 177:-0.01545 178:0.03429 179:-0.01456 180:-0.00806 181:0.0857 182:0.04652 183:0.08987 184:-0.04748 185:-0.02733 186:-0.00459 187:-0.01938 188:0.04382 189:-0.01458 190:0.0185 191:-0.02401 192:-0.00598 193:-0.01976 194:0.08622 195:-0.00175 196:-0.04831 197:0.0501 198:-0.03943 199:-0.04419 200:-0.03871 201:-0.06978 202:0.02253 203:0.0481 204:-0.02264 205:-0.03058 206:-0.05325 207:-0.08328 208:-0.02622 209:-0.0887 210:-0.04406 211:-0.01262 212:0.07928 213:0.01547 214:0.02517 215:-0.05486 216:-0.06525 217:0.08863 218:-0.02632 219:-0.00515 220:-0.03924 221:-0.02677 222:0.05919 223:-0.0196 224:0.00748 225:-0.00428 226:0.04493 227:-0.03371 228:0.06485 229:-0.02913 230:3e-05 231:-0.00048 232:0.07879 233:0.07421 234:0.03376 235:-0.00157 236:-0.00925 237:-0.03194 238:0.02236 239:-0.07332 240:0.06798 241:0.00967 242:0.05917 243:0.0184 244:0.02282 245:-0.04726 246:0.04618 247:0.03889 248:0.00306 249:0.05758 250:0.0034 251:-0.029 252:0.01891 253:-0.01351 254:0.02442 255:-0.05149 256:0.00326 257:-0.01627 258:0.0105 259:0.08702 260:0.00301 261:0.09225 262:0.02332 263:0.03581 264:0.00672 265:-0.02398 266:0.04578 267:-0.04119 268:-0.02942 269:-0.06772 270:-0.01392 271:0.01693 272:-0.04142 273:-0.0171 274:-0.01205 275:0.01658 276:-0.01184 277:0.07076 278:0.00195 279:-0.05744 280:-0.06551 281:-0.0349 282:0.03608 283:-0.03955 284:-0.02098 285:-0.02924 286:0.00054 287:0.0206 288:-0.02471 289:-0.01296 290:-0.01148 291:0.03083 292:-0.00836 293:0.01481 294:-0.00042 295:0.00707 296:0.02382 297:0.0123 298:3e-05 299:0.01618 300:-0.04434 301:0.09457 302:0.0079 303:0.04036 304:0.06884 305:-0.0338 306:-0.06742 307:-0.06569 308:-0.02682 309:0.03775 310:0.01953 311:0.01724 312:-0.06003 313:0.03368 314:-0.02634 315:0.03491 316:-0.00653 317:0.03988 318:-0.01063 319:0.01895 320:-0.02325 321:-0.00396 322:-0.08225 323:-0.03329 324:0.01539 325:-0.03058 326:0.02328 327:1e-05 328:0.07391 329:-0.05956 330:-0.05998 331:-0.02206 332:0.05681 333:-0.0038 334:0.00689 335:0.07178 336:0.05388 337:-0.00584 338:0.06392 339:-0.00439 340:0.02633 341:0.01306 342:-0.02955 343:0.03169 344:0.03906 345:-0.02016 346:0.08832 347:-0.02272 348:-0.11052 349:0.03417 350:0.02338 351:0.06702 352:0.06258 353:0.00763 354:0.04482 355:-0.02787 356:0.00253 357:-0.07356 358:0.06625 359:-0.0492 360:-0.02784 361:-0.05511 362:0.05188 363:-0.06321 364:0.04481 365:0.01853 366:0.01546 367:0.08021 368:-0.02476 369:0.01385 370:0.04225 371:-0.03062 372:-0.05924 373:-0.00077 374:0.00296 375:0.03773 376:0.02146 377:-0.04699 378:-0.01716 379:0.00746 380:0.00869 381:-0.03008 382:0.01013 383:-0.00302 384:0.02185 385:-0.09649 386:0.06436 387:-0.05433 388:-0.01637 389:-0.04118 390:0.01205 391:-0.03826 392:0.0368 393:0.00931 394:0.02323 395:0.01442 396:0.03187 397:0.02625 398:-0.03113 399:-0.08713 400:0.04131 401:0.0843 402:-0.09024 403:-0.0564 404:-0.0014 405:0.01916 406:0.01213 407:0.04191 408:0.01714 409:0.03782 410:0.04437 411:-0.05182 412:-0.06305 413:0.01979 414:0.01612 415:0.03374 416:0.01664 417:0.03599 418:-0.07911 419:0.06521 420:-0.04315 421:0.05107 422:0.01566 423:-0.09323 424:-0.01372 425:0.03116 426:0.05033 427:-0.05896 428:0.05762 429:-0.00315 430:0.00512 431:0.00372 432:-0.09417 433:0.00051 434:-0.05549 435:0.11042 436:0.10255 437:0.07064 438:0.04333 439:0.03828 440:0.0377 441:-0.04163 442:-0.02655 443:0.03006 444:0.00013 445:-0.02812 446:0.02129 447:0.06318 448:0.033 449:-0.03238 450:0.02591 451:-0.01083 452:-0.05537 453:0.01723 454:-0.0071 455:0.06231 456:-0.04126 457:-0.02661 458:0.00451 459:0.03246 460:0.00034 461:0.01345 462:-0.09639 463:-0.04826 464:0.0135 465:0.03551 466:-0.02622 467:0.06051 468:0.01 469:-0.00413 470:0.00012 471:-0.04963 472:0.01519 473:0.03572 474:-0.0111 475:-0.07095 476:0.01405 477:-0.019 478:-0.05127 479:-0.06175 480:-0.05571 481:-0.0359 482:-0.06104 483:-0.02607 484:-0.08216 485:0.07087 486:0.00678 487:0.0318 488:0.03274 489:-0.01619 490:-0.04149 491:0.07867 492:0.07362 493:-0.06078 494:0.00427 495:-0.00523 496:0.03249 497:-0.0138 498:-0.04811 499:-0.04027 500:-0.05734 501:0.06303 502:-0.00802 503:0.04762 504:-0.00202 505:-0.04682 506:0.06029 507:-0.02826 508:-0.01487 509:-0.0178 510:0.02894 511:0.00952 
0 0.78179005189664286 0 0 0.36752847094920332 0 0 0.10347546630514964 0 0 0.47189949627107258 0 0.099754215450716069 0:0.02415 1:-0.0376 2:0.04573 3:-0.18832 4:0.00747 5:0.02331 6:-0.02258 7:0.03131 8:-0.05034 9:0.02021 10:-0.0849 11:0.03136 12:-0.06863 13:-0.10285 14:-0.05048 15:-0.02285 16:0.02876 17:-0.03017 18:0.00322 19:-0.01798 20:-0.00113 21:0.01092 22:0.04614 23:-0.03256 24:-0.06759 25:0.03815 26:-0.1032 27:-0.01741 28:0.0331 29:-0.00994 30:0.03394 31:-0.07182 32:0.003 33:0.03986 34:-0.02898 35:0.02678 36:0.00395 37:0.02173 38:0.00964 39:0.04515 40:-0.04042 41:0.02421 42:-0.05789 43:-0.08006 44:-0.05008 45:0.02362 46:-0.02066 47:-0.00789 48:-0.03682 49:0.09023 50:-0.00108 51:0.03196 52:0.01142 53:-0.00712 54:-0.03201 55:0.03577 56:0.02936 57:-0.01335 58:0.10195 59:-0.05704 60:-0.05314 61:-0.06647 62:-0.05674 63:0.01991 64:0.06248 65:0.02469 66:0.01576 67:0.00385 68:-0.00286 69:-0.01301 70:0.03358 71:0.10794 72:0.08317 73:0.00797 74:0.02004 75:0.00545 76:0.02949 77:-0.0216 78:-0.06161 79:0.03217 80:0.00501 81:-0.0228 82:0.01429 83:-0.00963 84:0.00263 85:0.03336 86:0.01909 87:-0.05961 88:-0.02172 89:-0.01462 90:0.02867 91:-0.01537 92:-0.05004 93:-0.19271 94:-0.04371 95:-0.03062 96:-0.02146 97:-0.03794 98:0.0208 99:0.02434 100:-0.06876 101:0.06589 102:-0.06331 103:0.0039 104:0.0538 105:-0.02816 106:0.02409 107:-0.00733 108:-0.0263 109:0.00909 110:-0.01022 111:0.03842 112:-0.01922 113:0.07819 114:-0.03467 115:-0.00607 116:-0.02771 117:0.02087 118:-0.00338 119:-0.06192 120:0.02702 121:0.00708 122:-0.02586 123:-0.03765 124:-0.00646 125:0.07796 126:0.06038 127:0.02833 128:0.12161 129:-0.00758 130:0.01077 131:-0.03927 132:0.06948 133:-0.00534 134:-0.03436 135:-0.01283 136:0.03204 137:-0.02031 138:0.04393 139:-0.00897 140:-0.00685 141:-0.03618 142:0.00523 143:-0.06843 144:0.00346 145:0.06776 146:0.07592 147:0.02813 148:0.01905 149:-0.00999 150:0.03134 151:-0.02374 152:0.01301 153:-0.05425 154:0.03308 155:-0.0671 156:-0.01811 157:-0.01158 158:0.00727 159:0.01957 160:-0.01242 161:0.07718 162:-0.01349 163:-0.06042 164:0.0437 165:-0.00573 166:0.00259 167:0.02319 168:-0.02701 169:0.00676 170:0.00565 171:-0.04398 172:0.01971 173:-0.01478 174:-0.05285 175:-0.03971 176:0.00896 177:-0.02583 178:0.03178 179:-0.00933 180:-0.01909 181:0.08709 182:0.05965 183:0.10846 184:-0.04485 185:-0.06457 186:0.01577 187:-0.01523 188:0.06776 189:-0.02487 190:0.02005 191:-0.01742 192:0.00337 193:-0.01638 194:0.00476 195:0.05678 196:-0.06045 197:0.03349 198:-0.07104 199:-0.05878 200:0.03861 201:-0.05318 202:0.0028 203:0.066 204:-0.02948 205:0.02048 206:-0.03947 207:-0.03427 208:-0.02276 209:-0.04249 210:-0.0399 211:-0.04448 212:0.06351 213:0.02024 214:0.04179 215:-0.08928 216:-0.05176 217:0.04479 218:-0.04223 219:0.00127 220:-0.03708 221:-0.00435 222:0.04926 223:-0.02135 224:0.00722 225:0.02258 226:0.01275 227:-0.0123 228:0.02577 229:0.02188 230:0.01415 231:0.00032 232:0.02105 233:0.09811 234:0.0335 235:-0.00537 236:0.01242 237:-0.02877 238:0.02328 239:-0.0314 240:0.04261 241:0.02702 242:0.05147 243:0.04647 244:0.0351 245:0.00368 246:0.00753 247:0.03968 248:-0.02395 249:0.05866 250:0.00377 251:0.00614 252:0.02212 253:-0.01959 254:0.0202 255:-0.06168 256:0.00187 257:0.0541 258:0.07385 259:0.0682 260:0.00162 261:0.05336 262:0.03243 263:0.02983 264:0.03263 265:-0.02427 266:0.01427 267:-0.04742 268:-0.03106 269:-0.0501 270:-0.0052 271:-0.03275 272:-0.01907 273:-0.00076 274:-0.00947 275:0.03135 276:-0.01169 277:0.06966 278:0.02308 279:-0.00141 280:-0.05892 281:0.0045 282:0.02886 283:-0.06796 284:-0.02388 285:0.00828 286:-0.01925 287:0.03007 288:0.00969 289:-0.03105 290:0.02547 291:0.00318 292:-0.03978 293:0.01475 294:0.02709 295:-0.00538 296:0.02856 297:0.00509 298:-0.00042 299:0.00384 300:-0.01767 301:0.06156 302:0.01627 303:0.01005 304:0.09888 305:-0.00526 306:-0.03248 307:-0.00984 308:-0.03962 309:0.00728 310:0.03776 311:-0.0235 312:-0.03139 313:0.03431 314:-0.05773 315:-0.00082 316:-0.02445 317:0.05733 318:-0.0207 319:-0.0154 320:-0.01685 321:-0.00307 322:-0.07761 323:-0.0592 324:0.04305 325:-0.02163 326:0.0289 327:-0.02238 328:0.03272 329:-0.03498 330:-0.03851 331:-0.03961 332:0.02075 333:0.00205 334:-0.00476 335:0.04922 336:0.0564 337:-0.00464 338:0.03459 339:0.04283 340:0.00343 341:0.04843 342:-0.01538 343:0.01196 344:0.04701 345:-0.00819 346:0.10227 347:-0.05222 348:-0.13054 349:0.02133 350:0.04007 351:0.04515 352:0.05232 353:0.02072 354:0.04508 355:0.00064 356:-0.02776 357:-0.05403 358:0.07901 359:-0.08659 360:-0.00683 361:-0.05358 362:0.0472 363:-0.02899 364:0.03586 365:0.02894 366:0.01853 367:0.05636 368:-0.03192 369:0.01669 370:0.00588 371:-0.01398 372:-0.08024 373:0.01439 374:-0.00442 375:0.00962 376:-0.00554 377:-0.02078 378:-0.02788 379:0.02004 380:0.01322 381:-0.02175 382:-0.00187 383:0.04776 384:0.01634 385:-0.10764 386:0.04344 387:-0.06286 388:-0.01453 389:0.00513 390:0.03493 391:-0.01823 392:0.03113 393:0.03164 394:-0.00204 395:-0.01711 396:0.04445 397:0.03492 398:-0.0382 399:-0.04909 400:0.03858 401:0.07283 402:-0.06051 403:-0.05273 404:0.03709 405:0.06941 406:-0.00735 407:-0.0099 408:0.00429 409:0.05506 410:0.05108 411:-0.03673 412:-0.03863 413:0.02185 414:0.00958 415:-0.03503 416:-0.00611 417:0.01595 418:-0.08771 419:0.06397 420:-0.03363 421:-0.01457 422:-0.03173 423:-0.16089 424:-0.01593 425:0.04574 426:0.06483 427:-0.00763 428:0.07319 429:0.01681 430:0.02106 431:-0.06309 432:-0.1226 433:0.00178 434:-0.05393 435:0.10595 436:0.08711 437:0.03679 438:0.04431 439:0.04826 440:0.04679 441:-0.05837 442:0.00453 443:0.07296 444:-0.02568 445:-0.01872 446:0.01877 447:0.12204 448:-0.00325 449:-0.01234 450:-0.03428 451:-0.02525 452:-0.02806 453:0.00222 454:0.00692 455:0.07973 456:-0.03455 457:-0.03533 458:-0.0408 459:0.0472 460:-0.02262 461:-0.0145 462:-0.08219 463:-0.0561 464:0.01301 465:0.00655 466:0.00749 467:0.07953 468:0.0193 469:0.02355 470:0.0309 471:-0.04129 472:0.02612 473:0.02199 474:-0.0195 475:-0.04549 476:0.01221 477:-0.06406 478:-0.07386 479:-0.07847 480:-0.09088 481:-0.02793 482:-0.09721 483:0.00584 484:-0.0572 485:0.04626 486:0.02584 487:0.01283 488:0.01053 489:-0.03645 490:-0.10789 491:0.03533 492:-0.01099 493:-0.05452 494:0.0039 495:-0.0149 496:0.03476 497:0.01136 498:-0.05883 499:-0.01421 500:-0.01433 501:0.04197 502:0.05359 503:0.04529 504:-0.0109 505:-0.09448 506:0.03038 507:-0.03446 508:-0.01103 509:0.00416 510:-0.00289 511:0.02713 
0 0 0 0 0.11409481613538611 0 0 0 0 0 0 0 0 0:0.05499 1:-0.06052 2:0.057 3:-0.14589 4:0.05134 5:-8e-05 6:-0.03416 7:0.02613 8:-0.07609 9:0.00605 10:-0.10625 11:0.01432 12:-0.04689 13:-0.10305 14:-0.02973 15:-0.02588 16:0.04155 17:-0.04516 18:-0.00047 19:-0.02454 20:-0.02042 21:0.01197 22:0.0117 23:-0.02114 24:-0.06648 25:0.01842 26:-0.11267 27:0.00583 28:-0.00384 29:-0.01992 30:0.02873 31:-0.00273 32:-0.00342 33:0.02275 34:-0.04272 35:0.03629 36:0.03821 37:0.01186 38:0.01174 39:0.01556 40:-0.02228 41:-0.00145 42:0.02982 43:-0.06516 44:-0.03543 45:0.03093 46:-0.00606 47:0.02348 48:-0.03238 49:0.12293 50:0.02421 51:-0.02388 52:0.00553 53:-0.00942 54:-0.03794 55:0.00763 56:0.02524 57:-0.02334 58:0.07638 59:-0.06908 60:-0.02256 61:-0.09573 62:-0.0568 63:0.0719 64:0.04886 65:0.02336 66:-0.02073 67:0.02814 68:0.02199 69:0.0417 70:0.02912 71:0.13788 72:0.07859 73:-0.00056 74:0.00373 75:0.02412 76:-0.01475 77:0.01381 78:-0.02595 79:0.06186 80:0.02889 81:-0.0142 82:0.01785 83:-0.02675 84:-0.03442 85:0.05989 86:0.00817 87:-0.04954 88:0.00297 89:0.02929 90:0.02968 91:-0.02371 92:-0.02261 93:-0.13004 94:-0.04982 95:-0.06045 96:-0.02573 97:-0.09495 98:-0.00383 99:0.00931 100:-0.0626 101:0.05382 102:-0.03512 103:-0.01544 104:0.0448 105:-0.07283 106:-0.03729 107:-0.00896 108:0.00044 109:0.03169 110:-0.00466 111:0.00679 112:-0.00665 113:0.07801 114:-0.04918 115:0.01713 116:-0.0189 117:0.03101 118:-0.04406 119:-0.0917 120:0.0259 121:0.00301 122:-0.00271 123:-0.03764 124:-0.01535 125:0.07047 126:0.0606 127:0.03011 128:0.09628 129:-0.01772 130:0.02555 131:0.01312 132:0.0675 133:-0.00391 134:-0.05324 135:0.03162 136:0.04352 137:-0.02287 138:0.08685 139:-0.00572 140:-0.02715 141:0.03891 142:0.02594 143:-0.02322 144:-0.01933 145:0.06614 146:0.05844 147:0.02 148:0.02137 149:0.03748 150:0.0275 151:-0.00799 152:-0.01613 153:-0.00819 154:0.05354 155:-0.04032 156:-0.01744 157:0.0006 158:0.02985 159:0.02122 160:-0.00361 161:0.05452 162:0.01135 163:-0.09142 164:0.03683 165:-0.04162 166:0.00618 167:0.05206 168:-0.02403 169:-0.03895 170:0.02382 171:-0.05931 172:-0.03129 173:-0.02284 174:-0.06907 175:-0.02154 176:0.01099 177:-0.01072 178:0.03835 179:0.00622 180:0.00906 181:0.06525 182:0.04841 183:0.08307 184:-0.02058 185:-0.04444 186:-0.02396 187:-0.04504 188:0.02912 189:0.00788 190:-0.01667 191:-0.02129 192:-0.02137 193:-0.0312 194:0.08632 195:-0.01208 196:-0.03188 197:0.06716 198:-0.0514 199:-0.04622 200:-0.00981 201:-0.08019 202:0.00339 203:0.07257 204:-0.0594 205:-0.04025 206:-0.0199 207:-0.06647 208:-0.00784 209:-0.04734 210:-0.04356 211:0.00118 212:0.07648 213:0.00511 214:0.05075 215:-0.05852 216:-0.04225 217:0.06491 218:-0.02125 219:0.00399 220:-0.02247 221:-0.0078 222:0.02986 223:-0.01012 224:-0.01579 225:0.00919 226:0.02648 227:-0.03284 228:0.08147 229:-0.00832 230:0.00946 231:-0.00311 232:0.08014 233:0.09745 234:0.00698 235:0.02746 236:-0.01826 237:-0.051 238:0.02938 239:-0.04493 240:0.07065 241:-0.01924 242:0.08235 243:0.01026 244:0.01947 245:-0.025 246:0.05425 247:0.02164 248:-0.00375 249:0.04118 250:-0.00185 251:0.00425 252:-0.02118 253:-0.0309 254:0.01442 255:-0.07348 256:0.02302 257:-0.03744 258:0.02665 259:0.07468 260:-0.00117 261:0.08046 262:0.00774 263:0.01126 264:-0.00637 265:-0.00083 266:0.05196 267:-0.04293 268:-0.00063 269:-0.07182 270:-0.0278 271:-0.01653 272:-0.03327 273:0.00845 274:-0.01077 275:0.01848 276:-0.02535 277:0.08386 278:0.0131 279:-0.08245 280:-0.03669 281:-0.01746 282:0.00888 283:-0.03097 284:-0.03311 285:-0.03134 286:0.01283 287:0.05023 288:-0.0352 289:0.00778 290:0.00327 291:0.01552 292:-0.02373 293:0.03031 294:0.04175 295:0.00231 296:0.03202 297:-0.00827 298:-0.01954 299:0.01186 300:-0.03481 301:0.09349 302:0.00649 303:0.03456 304:0.06308 305:-0.01311 306:-0.03734 307:-0.06997 308:-0.02982 309:0.05462 310:0.03055 311:-0.0024 312:-0.04268 313:0.05856 314:-0.01572 315:-0.01708 316:-0.04188 317:0.03589 318:-0.014 319:-0.00728 320:-0.0242 321:-0.01449 322:-0.08388 323:-0.02243 324:0.00753 325:-0.04876 326:0.03794 327:-0.00399 328:0.05332 329:-0.02364 330:-0.06919 331:-0.07016 332:0.07432 333:0.0017 334:-0.0273 335:0.06433 336:0.08384 337:-0.00188 338:0.04907 339:-0.02107 340:0.02418 341:0.00994 342:-0.02847 343:0.04702 344:0.05032 345:-0.0143 346:0.12088 347:-0.04049 348:-0.10866 349:0.03632 350:0.01713 351:0.04565 352:0.05444 353:-0.00559 354:0.05432 355:-0.01294 356:-0.0216 357:-0.07285 358:0.03748 359:-0.02924 360:-0.01609 361:-0.04794 362:0.10347 363:-0.05518 364:0.03955 365:0.02245 366:0.01468 367:0.07995 368:0.01871 369:0.0258 370:0.0082 371:-0.01914 372:-0.02337 373:0.02243 374:0.00266 375:0.03106 376:0.01198 377:-0.05596 378:-0.01535 379:0.01721 380:0.02764 381:0.02004 382:0.02518 383:0.00467 384:0.01204 385:-0.09399 386:0.0631 387:-0.03995 388:-0.01427 389:-0.03186 390:0.01139 391:-0.05643 392:0.01582 393:0.007 394:0.00101 395:0.03108 396:0.05952 397:0.0433 398:-0.04076 399:-0.09505 400:0.02514 401:0.06134 402:-0.07439 403:-0.03633 404:0.00646 405:0.00559 406:-0.02368 407:0.04846 408:0.01073 409:0.0548 410:0.02474 411:-0.05713 412:-0.04415 413:0.03923 414:0.046 415:0.02598 416:-0.00756 417:0.03222 418:-0.09481 419:0.0778 420:-0.00637 421:0.00509 422:-0.03352 423:-0.05795 424:-0.00592 425:0.02601 426:0.03873 427:-0.03875 428:0.04666 429:0.03323 430:-0.01775 431:0.01551 432:-0.12732 433:0.0014 434:-0.03412 435:0.06208 436:0.04721 437:0.07506 438:0.0542 439:0.05214 440:0.0178 441:-0.06516 442:-0.00854 443:0.03321 444:-0.0129 445:-0.03446 446:-0.01246 447:0.07823 448:0.00557 449:-0.00887 450:-0.02 451:-0.03429 452:-0.05219 453:0.03192 454:0.00484 455:0.08081 456:0.0004 457:-0.05402 458:0.01446 459:0.03803 460:-0.0528 461:-0.00654 462:-0.08734 463:-0.05349 464:-0.01249 465:-0.00668 466:0.00729 467:0.05305 468:0.02385 469:0.01472 470:0.03723 471:-0.0015 472:0.00085 473:0.06596 474:-0.03098 475:-0.07575 476:0.01869 477:-0.02934 478:-0.07315 479:-0.09904 480:-0.0613 481:-0.01421 482:-0.06329 483:-0.04136 484:-0.07478 485:0.07267 486:-0.01536 487:0.01299 488:0.0235 489:-0.03082 490:-0.04645 491:0.03445 492:0.06177 493:-0.02495 494:-0.0155 495:-0.00677 496:0.04548 497:0.019 498:-0.05917 499:-0.03278 500:-0.05634 501:0.07158 502:0.02907 503:0.06186 504:-0.00908 505:-0.07889 506:0.0278 507:-0.03811 508:-0.00212 509:-0.0108 510:0.01227 511:0.04728 
0 0 0.1703540952520507 0.31698683043265224 0.65474765426497661 0.39980047573980726 0 0 0 0.20356844174927313 0.24057446897383775 0 0 0:0.00096 1:-0.02235 2:0.05297 3:-0.18058 4:0.01047 5:0.02382 6:-0.00748 7:0.04429 8:-0.03077 9:0.01887 10:-0.05107 11:0.03466 12:-0.06974 13:-0.08571 14:-0.00281 15:-0.01788 16:0.04549 17:-0.01305 18:0.00536 19:0.00825 20:0.00513 21:0.00064 22:0.04547 23:-0.02032 24:-0.05691 25:0.01972 26:-0.04854 27:-0.03004 28:0.05705 29:0.02046 30:0.04127 31:-0.04106 32:0.02572 33:0.04256 34:-0.01809 35:-0.00394 36:-0.01242 37:0.02305 38:-0.01715 39:0.03905 40:-0.01793 41:0.05712 42:-0.02309 43:-0.07798 44:-0.02767 45:0.04126 46:-0.0072 47:0.01536 48:-0.03466 49:0.10368 50:-0.00875 51:0.07013 52:-0.02774 53:0.00466 54:-0.03002 55:0.04635 56:0.03128 57:-0.02478 58:0.07265 59:-0.01265 60:-0.01582 61:-0.06696 62:-0.02438 63:0.01961 64:0.03978 65:0.00586 66:0.0392 67:0.01672 68:-0.02846 69:0.00056 70:0.0535 71:0.05585 72:0.06866 73:0.02511 74:0.01829 75:0.01122 76:0.01553 77:-0.03165 78:-0.0229 79:0.03554 80:0.00029 81:-0.00638 82:0.00169 83:0.02037 84:-0.0029 85:-0.0162 86:0.0185 87:-0.03496 88:-0.02171 89:-0.02538 90:0.04083 91:-0.02378 92:-0.05858 93:-0.18963 94:-0.04979 95:-0.05088 96:-0.02464 97:0.02634 98:0.03059 99:0.02163 100:-0.04831 101:0.06079 102:-0.03608 103:-0.00112 104:0.00998 105:-0.00915 106:0.05014 107:-0.03442 108:-0.05294 109:0.00213 110:-0.00089 111:0.04487 112:-0.03594 113:0.06488 114:-0.02764 115:0.00428 116:-0.04013 117:-0.01594 118:0.03048 119:-0.04782 120:0.02208 121:-0.01386 122:-0.00339 123:-0.0078 124:-0.00733 125:0.0573 126:0.00895 127:0.05712 128:0.10995 129:-0.00572 130:0.00963 131:-0.02979 132:0.09056 133:-0.00128 134:-0.04716 135:0.01954 136:0.05115 137:0.01318 138:0.03336 139:-0.0104 140:-0.01187 141:-0.05338 142:0.00277 143:-0.05229 144:-0.01217 145:0.0274 146:0.08485 147:0.02108 148:0.06707 149:-0.00964 150:0.02307 151:0.00052 152:-0.00503 153:-0.02855 154:0.05003 155:-0.05462 156:-0.03273 157:-0.01992 158:0.01807 159:-0.0014 160:-0.02877 161:0.02752 162:-0.04901 163:-0.05179 164:0.05953 165:-0.06584 166:-0.02484 167:0.02507 168:-0.03274 169:0.00301 170:0.02238 171:-0.03329 172:0.04472 173:-0.02159 174:-0.0691 175:-0.05156 176:-0.00762 177:-0.04407 178:0.04384 179:0.00199 180:-0.01861 181:0.07747 182:0.05276 183:0.14947 184:0.00601 185:-0.05675 186:0.00307 187:0.02868 188:0.06627 189:-0.00859 190:0.01675 191:-0.01969 192:0.03004 193:-0.02936 194:0.02839 195:0.02825 196:-0.06689 197:0.05692 198:-0.05185 199:-0.06261 200:0.02211 201:-0.04689 202:0.00721 203:0.06804 204:-0.03054 205:0.01068 206:0.00266 207:-0.04507 208:-0.02521 209:-0.04217 210:-0.03947 211:-0.069 212:0.03335 213:0.02761 214:0.0222 215:-0.06004 216:-0.0536 217:0.03201 218:0.01034 219:0.03482 220:-0.05209 221:-0.0156 222:0.05227 223:-0.01856 224:-0.00074 225:-0.00153 226:0.01622 227:-0.02882 228:0.03506 229:0.0376 230:0.05366 231:0.04658 232:0.01779 233:0.09751 234:0.05097 235:-0.02996 236:0.03406 237:-0.0241 238:0.00572 239:-0.04334 240:0.0705 241:0.04617 242:0.03008 243:0.05893 244:0.05083 245:-0.02568 246:-0.03405 247:0.04478 248:-0.02506 249:0.06009 250:0.02308 251:-0.00068 252:0.04772 253:-0.00592 254:0.04396 255:-0.01454 256:-0.00645 257:0.05444 258:0.1097 259:0.03948 260:0.01403 261:0.02351 262:0.0239 263:0.04172 264:0.04237 265:-0.01775 266:0.0151 267:-0.01788 268:0.00084 269:-0.03973 270:0.00786 271:-0.07067 272:-0.01144 273:-0.01068 274:-0.00207 275:0.03607 276:-0.0236 277:0.03152 278:0.05075 279:0.02385 280:-0.03655 281:0.00186 282:0.02648 283:-0.05197 284:0.00316 285:0.03014 286:-0.01494 287:0.01599 288:0.00694 289:-0.06683 290:0.03229 291:0.00306 292:0.00338 293:-0.00778 294:0.00734 295:0.01829 296:0.04472 297:0.02234 298:0.00899 299:0.01 300:-0.00972 301:0.07403 302:0.00653 303:0.02486 304:0.0636 305:-0.00242 306:0.00653 307:-0.00612 308:-0.01495 309:-0.00712 310:0.04462 311:-0.0591 312:-0.0331 313:0.05852 314:-0.06809 315:-0.00621 316:-0.03523 317:0.0148 318:0.00066 319:-0.04079 320:-0.08496 321:0.0041 322:-0.04332 323:-0.04921 324:0.05579 325:-0.01149 326:0.04904 327:-0.04192 328:0.04349 329:-0.03713 330:-0.04516 331:-0.02903 332:0.01855 333:-0.01585 334:0.01098 335:0.01002 336:0.05818 337:-0.00266 338:0.00845 339:0.0535 340:-0.00017 341:0.02994 342:-0.03756 343:-0.003 344:0.03414 345:0.00156 346:0.0736 347:-0.00899 348:-0.13073 349:0.0547 350:0.00927 351:0.04254 352:0.03464 353:0.04662 354:0.02027 355:-0.01092 356:-0.07422 357:-0.06941 358:0.04719 359:-0.06133 360:0.00914 361:-0.06849 362:0.01391 363:-0.04655 364:0.01746 365:0.009 366:0.02681 367:0.0427 368:-0.04122 369:0.01982 370:0.02157 371:0.01202 372:-0.08215 373:0.04224 374:0.00878 375:0.00903 376:-0.00106 377:-0.04591 378:-0.03544 379:0.0105 380:-0.01117 381:-0.03981 382:-0.05623 383:0.0447 384:-0.02181 385:-0.11759 386:0.02977 387:-0.0807 388:0.00118 389:-0.00416 390:0.00936 391:-0.00866 392:0.06265 393:0.04192 394:0.044 395:-0.00168 396:0.02098 397:-0.00275 398:-0.0263 399:-0.02343 400:0.06588 401:0.06523 402:-0.03342 403:-0.03899 404:0.03159 405:0.0554 406:0.02508 407:-0.01732 408:-0.04087 409:0.07476 410:0.02523 411:-0.0149 412:-0.09537 413:0.00411 414:0.0559 415:-0.05396 416:-0.00167 417:0.00286 418:-0.06389 419:0.03955 420:-0.07153 421:-0.00842 422:-0.03606 423:-0.15284 424:0.01802 425:0.05968 426:0.08027 427:-0.02057 428:0.0597 429:0.00582 430:-0.00376 431:-0.07516 432:-0.07504 433:0.01138 434:-0.06378 435:0.13614 436:0.09115 437:0.05619 438:-0.00105 439:0.02219 440:0.06403 441:-0.08169 442:0.00853 443:0.03505 444:-0.05073 445:-0.00895 446:0.0092 447:0.11073 448:0.00714 449:5e-05 450:-0.00406 451:-0.01801 452:-0.01052 453:0.02526 454:0.09173 455:0.0748 456:-0.03469 457:-0.02364 458:-0.03253 459:0.03705 460:-0.05891 461:0.02109 462:-0.06608 463:-0.09916 464:0.07597 465:-0.00928 466:0.00339 467:0.07288 468:0.01209 469:0.05516 470:0.01621 471:0.00589 472:0.02879 473:0.01833 474:-0.00087 475:-0.00119 476:-0.01177 477:-0.04324 478:-0.06372 479:-0.08018 480:-0.06224 481:-0.03494 482:-0.10363 483:0.01549 484:-0.08064 485:0.07525 486:0.04151 487:0.03519 488:0.01559 489:-0.03476 490:-0.08619 491:0.07713 492:-0.01182 493:-0.05894 494:-0.01143 495:-0.02689 496:0.02939 497:0.02903 498:-0.06683 499:-0.00901 500:-0.01537 501:0.00838 502:0.0275 503:0.06343 504:-0.01317 505:-0.10522 506:0.0255 507:-0.04279 508:-0.02501 509:0.02626 510:-0.0034 511:0.03246 
0.15813213518891453 0.27175141132669423 0 0 0.49971972284065663 0 0 0.10752584580462382 0.732598583970969 0 0 0.5312233285990875 0.75658827446331411 0:0.02539 1:-0.07567 2:0.03023 3:-0.11668 4:0.07234 5:-0.01357 6:0.00623 7:0.01971 8:-0.02025 9:0.01986 10:-0.06822 11:-0.03386 12:-0.05345 13:-0.09859 14:-0.00883 15:-0.01867 16:0.08314 17:-0.03741 18:0.03026 19:0.01466 20:-0.03857 21:0.00833 22:0.03162 23:-0.04344 24:-0.05683 25:0.03215 26:-0.12542 27:0.00451 28:-0.01657 29:-0.00862 30:0.02686 31:-0.02274 32:-0.02949 33:0.00069 34:-0.06453 35:0.03125 36:-0.06292 37:-0.03455 38:0.00767 39:0.03477 40:0.02564 41:-0.01987 42:-0.01712 43:-0.04779 44:-0.00814 45:0.05005 46:0.00392 47:-2e-05 48:0.00307 49:0.16283 50:0.0097 51:-0.00616 52:0.01151 53:0.03281 54:0.0126 55:0.04801 56:0.0113 57:-0.05195 58:0.0645 59:-0.04538 60:0.00314 61:-0.07593 62:-0.03576 63:0.06558 64:0.03439 65:0.00233 66:-0.01652 67:0.02677 68:0.01542 69:-0.00817 70:0.05834 71:0.11494 72:0.06162 73:-0.01142 74:-0.07174 75:0.09312 76:0.03079 77:0.02197 78:-0.02714 79:0.04483 80:0.0069 81:-0.01302 82:0.00224 83:0.02511 84:-0.00505 85:0.04825 86:0.04709 87:-0.05476 88:-0.01623 89:0.00405 90:0.02048 91:-0.02254 92:-0.01706 93:-0.10944 94:-0.04872 95:-0.04082 96:-0.01265 97:-0.01761 98:0.02306 99:0.0512 100:-0.05316 101:-0.01584 102:-0.0091 103:0.0164 104:0.02216 105:-0.03676 106:0.0193 107:-0.0331 108:-0.02779 109:0.01043 110:0.04768 111:-0.03516 112:-0.02157 113:0.08838 114:-0.03919 115:0.01593 116:-0.01503 117:0.01842 118:-0.04654 119:-0.06947 120:0.04533 121:-0.00653 122:-0.00034 123:-0.03596 124:0.01382 125:0.05146 126:0.02786 127:-0.02844 128:0.05941 129:0.01421 130:0.04712 131:0.03712 132:0.10008 133:0.04381 134:-0.05001 135:-0.00531 136:0.03666 137:0.0124 138:0.05646 139:-0.04419 140:-0.0323 141:0.03038 142:0.01237 143:-0.00754 144:0.00553 145:0.05648 146:0.0048 147:0.02133 148:0.00915 149:0.03216 150:-0.01749 151:0.03788 152:-0.02501 153:-0.06582 154:0.0716 155:-0.00064 156:-0.00607 157:-0.02252 158:0.00093 159:-0.03125 160:0.00776 161:0.02692 162:0.03595 163:-0.07655 164:0.04029 165:-0.0694 166:-0.01404 167:0.05239 168:-0.01404 169:-0.05268 170:0.00672 171:-0.06364 172:0.00329 173:-0.03358 174:-0.06183 175:-0.02182 176:-0.00559 177:-0.02268 178:0.04621 179:-0.03166 180:0.0423 181:0.00971 182:0.03146 183:0.07867 184:-0.00491 185:-0.0362 186:-0.02324 187:0.00969 188:0.04184 189:-0.03137 190:-0.02026 191:0.04836 192:-0.01346 193:-0.0165 194:0.07149 195:0.00379 196:-0.00169 197:0.05603 198:-0.08222 199:-0.03936 200:-0.01266 201:-0.04039 202:0.00621 203:0.0728 204:0.00111 205:-0.04877 206:0.04804 207:-0.04693 208:0.0214 209:-0.04479 210:-0.02378 211:0.03532 212:0.09379 213:0.06869 214:0.01708 215:-0.07005 216:-0.06159 217:0.03637 218:0.05594 219:-0.02488 220:-0.04451 221:-0.00757 222:0.02064 223:-0.00425 224:0.02234 225:0.01034 226:0.02621 227:-0.04905 228:0.09494 229:-0.0575 230:0.05107 231:0.01558 232:0.05834 233:0.12318 234:0.0512 235:0.05502 236:-0.02347 237:-0.00428 238:-0.02387 239:-0.08808 240:0.09448 241:-0.00554 242:0.05821 243:0.02277 244:0.0059 245:-0.05765 246:-0.02194 247:0.07441 248:-0.01005 249:0.03504 250:0.01112 251:-0.06279 252:-0.01814 253:0.00924 254:0.02277 255:-0.08426 256:-0.00494 257:0.04909 258:0.04596 259:0.05872 260:0.01008 261:0.02637 262:-0.03774 263:0.03492 264:0.00565 265:0.04206 266:0.05215 267:-0.03835 268:0.0199 269:-0.10644 270:-0.00937 271:0.01094 272:-0.01682 273:-0.01949 274:-0.00417 275:-0.01014 276:-0.01673 277:0.08311 278:0.00651 279:-0.0274 280:-0.03014 281:-0.01539 282:0.00905 283:-0.03312 284:0.0319 285:-0.00992 286:-0.01047 287:0.01778 288:-0.04877 289:-0.01997 290:0.0149 291:0.02691 292:0.00965 293:-0.01475 294:-0.00866 295:-0.02707 296:0.0558 297:0.03957 298:0.05171 299:-0.01061 300:-0.03207 301:0.06435 302:-0.01379 303:0.05267 304:0.06817 305:-0.01123 306:-0.04454 307:-0.05032 308:-0.03117 309:0.06176 310:0.10649 311:-0.00716 312:-0.05542 313:0.01056 314:-0.05228 315:0.00877 316:-0.03646 317:-0.04378 318:0.01968 319:-0.0437 320:-0.01932 321:-0.03711 322:-0.09327 323:-0.01575 324:-0.01758 325:-0.04227 326:0.05945 327:-0.01108 328:0.03938 329:-0.0383 330:-0.08753 331:-0.04734 332:0.02203 333:-0.0474 334:-0.02225 335:0.03415 336:0.05868 337:0.00163 338:-0.03134 339:-0.02412 340:0.06318 341:-0.00403 342:0.01609 343:0.01511 344:0.03728 345:0.00879 346:0.05548 347:-0.05562 348:-0.09065 349:0.05173 350:0.00961 351:-0.00202 352:0.03396 353:0.02561 354:-0.02439 355:0.0024 356:-0.04034 357:-0.07416 358:0.04511 359:-0.06156 360:-0.02554 361:0.01554 362:-0.00335 363:-0.06397 364:0.01737 365:0.02019 366:-0.02549 367:0.06334 368:-0.01423 369:-0.00691 370:0.03601 371:-0.00054 372:-0.03282 373:0.0604 374:0.00227 375:0.03807 376:0.00172 377:-0.07788 378:0.00275 379:0.01414 380:0.03253 381:0.03157 382:0.02103 383:-0.03804 384:0.03588 385:-0.06907 386:0.07342 387:-0.02916 388:-0.00509 389:-0.02483 390:0.01223 391:-0.01873 392:0.0313 393:0.01402 394:-0.01324 395:0.05635 396:0.03761 397:0.02827 398:-0.08738 399:-0.03058 400:0.04665 401:0.06761 402:-0.05527 403:-0.02825 404:-0.00649 405:0.04973 406:-0.02635 407:0.02506 408:-0.0402 409:0.04272 410:-0.00248 411:-0.01174 412:-0.03815 413:0.00365 414:0.05306 415:0.03068 416:-0.0306 417:0.02036 418:-0.10844 419:0.02328 420:-0.0198 421:0.00452 422:-0.02436 423:-0.11108 424:0.01035 425:0.01389 426:0.05058 427:-0.03899 428:0.06324 429:0.07422 430:-0.03973 431:-0.0371 432:-0.06279 433:-0.00725 434:-0.01988 435:0.10556 436:0.09597 437:0.06575 438:0.04699 439:0.03587 440:0.02887 441:-0.01911 442:-0.01641 443:0.01789 444:-0.01501 445:-0.04536 446:-0.07211 447:0.04347 448:-0.02213 449:-0.00049 450:-0.03899 451:-0.05855 452:-0.05107 453:0.02477 454:0.02607 455:0.04809 456:-0.04278 457:-0.07364 458:-0.02177 459:0.01112 460:-0.02683 461:0.00963 462:-0.113 463:-0.04452 464:0.02292 465:-0.00303 466:0.02541 467:0.07866 468:0.03077 469:-0.01095 470:0.05352 471:-0.02192 472:0.0161 473:0.02522 474:-0.02739 475:-0.07358 476:0.0154 477:-0.01538 478:-0.03385 479:-0.02121 480:-0.02321 481:-0.04427 482:0.00195 483:-0.01076 484:-0.0597 485:0.12603 486:-0.02605 487:0.05832 488:0.00517 489:-0.04864 490:-0.12279 491:0.06685 492:-0.02301 493:-0.03949 494:0.0648 495:0.02301 496:0.06099 497:-0.0161 498:-0.05935 499:-0.03046 500:-0.06664 501:0.05725 502:0.01321 503:0.10155 504:-0.00185 505:-0.05066 506:0.01443 507:-0.02155 508:0.00245 509:-0.04673 510:0.04246 511:0.02187 
0 0 0 0 0 0 0.21147777263112516 0 0 0 0 0 0 0:0.03056 1:-0.05762 2:0.07574 3:-0.1653 4:0.0087 5:0.03631 6:-0.0196 7:0.05953 8:-0.08956 9:0.0368 10:-0.10296 11:0.00189 12:-0.04404 13:-0.11954 14:-0.05316 15:-0.00201 16:0.05915 17:-0.03134 18:0.01895 19:-0.02545 20:-0.00433 21:-0.01547 22:0.02328 23:-0.01561 24:-0.05 25:0.01768 26:-0.1334 27:-0.00497 28:0.05524 29:-0.01025 30:0.00581 31:-0.01746 32:0.03975 33:0.02353 34:-0.03617 35:0.00633 36:0.02652 37:0.04226 38:-0.00645 39:0.0227 40:-0.01214 41:-0.00884 42:-0.03167 43:-0.09961 44:-0.02993 45:-0.00015 46:-0.02741 47:0.01123 48:-0.03897 49:0.10502 50:0.01472 51:-0.00471 52:0.0062 53:0.00309 54:-0.03341 55:-0.00639 56:0.001 57:-0.02448 58:0.06855 59:-0.05229 60:-0.05777 61:-0.08044 62:-0.04574 63:0.04925 64:0.02194 65:0.03848 66:-0.002 67:0.01945 68:0.00778 69:0.03295 70:0.04386 71:0.10524 72:0.05192 73:-0.03267 74:0.00042 75:0.04489 76:0.01074 77:0.01045 78:-0.01863 79:0.05234 80:0.02325 81:-0.01093 82:0.04238 83:-0.00355 84:-0.00458 85:0.04512 86:0.00042 87:-0.04542 88:-0.04317 89:0.01091 90:0.01118 91:-0.0229 92:-0.02009 93:-0.1491 94:-0.07343 95:-0.04883 96:-0.02369 97:-0.09256 98:-0.00505 99:0.00487 100:-0.0451 101:0.05868 102:-0.00959 103:0.00771 104:0.03179 105:-0.07269 106:0.00593 107:0.00034 108:0.00266 109:0.02657 110:0.01635 111:0.04327 112:0.0043 113:0.07979 114:-0.02334 115:0.01347 116:-0.02496 117:0.0349 118:-0.05292 119:-0.08732 120:0.03222 121:-0.01494 122:-0.02877 123:0.00428 124:0.00866 125:0.05728 126:0.05415 127:-0.00193 128:0.09718 129:-0.0265 130:0.02323 131:0.0166 132:0.11397 133:0.01046 134:-0.05262 135:0.01404 136:0.0544 137:-0.03237 138:0.05169 139:-0.00633 140:-0.03231 141:0.02075 142:0.02265 143:-0.02311 144:-0.00125 145:0.02126 146:0.06219 147:0.01445 148:-0.00357 149:0.00258 150:0.02801 151:-0.04529 152:-0.01042 153:-0.03968 154:0.03207 155:-0.02993 156:0.0088 157:-0.00632 158:0.04282 159:0.01307 160:-0.004 161:0.04427 162:-0.02774 163:-0.04471 164:0.05343 165:-0.01622 166:0.00945 167:0.05597 168:0.03165 169:-0.05492 170:0.03728 171:-0.04703 172:0.00077 173:-0.01332 174:-0.06147 175:-0.00743 176:0.00686 177:-0.04177 178:0.02277 179:-0.00144 180:0.00407 181:0.06419 182:0.04834 183:0.10451 184:-0.03824 185:-0.00876 186:-0.01444 187:-0.03085 188:0.01914 189:-0.02222 190:0.01194 191:-0.04564 192:-0.0092 193:0.01571 194:0.0898 195:-0.00663 196:-0.02712 197:0.04137 198:-0.04763 199:-0.02133 200:-0.0034 201:-0.06303 202:0.00966 203:0.05011 204:-0.00772 205:-0.0235 206:-0.04357 207:-0.07179 208:-0.02376 209:-0.09907 210:-0.03419 211:0.00516 212:0.09653 213:0.0479 214:0.03769 215:-0.04795 216:-0.09437 217:0.07513 218:-0.00209 219:-0.0042 220:-0.03538 221:-0.00773 222:0.06249 223:-0.00136 224:0.00241 225:0.00063 226:0.0502 227:-0.00448 228:0.10051 229:-0.02426 230:0.00196 231:-0.00774 232:0.07466 233:0.0922 234:0.02034 235:0.00061 236:-0.01754 237:-0.03315 238:0.04494 239:-0.08184 240:0.07775 241:-0.00791 242:0.05578 243:0.02871 244:0.00723 245:-0.03926 246:0.04117 247:0.04754 248:0.01532 249:0.06674 250:-0.0062 251:-0.02092 252:0.02094 253:-0.05289 254:0.02669 255:-0.07452 256:0.00387 257:0.01045 258:0.02588 259:0.07325 260:0.02739 261:0.09045 262:0.0082 263:0.02421 264:0.01656 265:-0.04061 266:0.04791 267:-0.04783 268:-0.0094 269:-0.05671 270:-0.03362 271:-0.00226 272:-0.04102 273:-0.01159 274:-0.01119 275:-0.00345 276:-0.02258 277:0.06826 278:0.00883 279:-0.0679 280:-0.05207 281:-0.03063 282:0.02429 283:-0.02905 284:-0.01971 285:-0.03247 286:0.03354 287:0.01549 288:-0.02264 289:0.012 290:0.00047 291:0.03127 292:-0.008 293:-0.00844 294:0.00776 295:-0.00415 296:0.01815 297:0.01403 298:0.00573 299:-0.00153 300:-0.03921 301:0.08434 302:0.01228 303:0.02166 304:0.07894 305:-0.04071 306:-0.05628 307:-0.06282 308:-0.05375 309:0.03881 310:0.03285 311:0.00601 312:-0.0653 313:0.03157 314:-0.04888 315:0.01508 316:-0.00284 317:0.04863 318:-0.00382 319:0.0031 320:-0.01737 321:-0.01124 322:-0.09918 323:-0.03404 324:0.02027 325:-0.04094 326:0.02585 327:0.00678 328:0.04966 329:-0.04202 330:-0.06785 331:-0.01855 332:0.05076 333:0.00558 334:0.00922 335:0.08687 336:0.04889 337:-0.00233 338:0.05296 339:-0.01427 340:0.02775 341:0.01672 342:-0.0481 343:0.03178 344:0.03705 345:-0.01385 346:0.09755 347:-0.00899 348:-0.1312 349:0.02217 350:0.04 351:0.07664 352:0.04638 353:-0.01255 354:0.0456 355:-0.04576 356:-0.01232 357:-0.05637 358:0.05411 359:-0.06509 360:-0.03624 361:-0.04325 362:0.06949 363:-0.06178 364:0.0286 365:0.01013 366:0.03312 367:0.08034 368:-0.00516 369:0.01266 370:0.00382 371:-0.0248 372:-0.05055 373:0.00491 374:-0.0069 375:0.03747 376:0.05175 377:-0.04326 378:-0.02523 379:0.00873 380:0.03301 381:-0.00325 382:0.01064 383:0.01947 384:0.0614 385:-0.10594 386:0.05664 387:-0.03669 388:-0.0133 389:-0.03634 390:0.02645 391:-0.03475 392:0.00529 393:-0.01502 394:0.02603 395:-0.01555 396:0.04305 397:0.04478 398:-0.03433 399:-0.07979 400:0.01946 401:0.0672 402:-0.09083 403:-0.06357 404:-0.00373 405:0.00399 406:-0.00158 407:0.03526 408:0.01479 409:0.02863 410:0.04782 411:-0.04525 412:-0.07552 413:0.01634 414:-0.00986 415:0.03857 416:-0.00884 417:0.01656 418:-0.08936 419:0.06063 420:-0.03928 421:0.00846 422:0.00893 423:-0.0823 424:-0.02604 425:0.02674 426:0.03828 427:-0.05361 428:0.06474 429:0.00738 430:0.02066 431:0.00468 432:-0.10004 433:0.00059 434:-0.05904 435:0.11677 436:0.1101 437:0.05496 438:0.03913 439:0.0467 440:0.00582 441:-0.03597 442:-0.03487 443:0.03542 444:-0.01259 445:-0.03977 446:0.01907 447:0.07831 448:0.00934 449:-0.03988 450:0.00259 451:-0.01539 452:-0.02055 453:0.01525 454:-0.02584 455:0.0577 456:-0.02452 457:-0.01374 458:0.01012 459:0.02676 460:0.00537 461:-0.01539 462:-0.0783 463:-0.04471 464:0.02345 465:0.05089 466:-0.01846 467:0.06344 468:-0.00018 469:-0.01153 470:0.01173 471:-0.0323 472:0.01662 473:0.04088 474:-0.01087 475:-0.07196 476:0.01384 477:0.00027 478:-0.05085 479:-0.0487 480:-0.03834 481:-0.02905 482:-0.0723 483:-0.02939 484:-0.07793 485:0.05852 486:0.00536 487:0.02524 488:0.04506 489:-0.00603 490:-0.0622 491:0.06454 492:0.06131 493:-0.03686 494:0.00481 495:0.01529 496:0.04687 497:-0.01003 498:-0.04133 499:-0.05265 500:-0.06334 501:0.08433 502:0.00737 503:0.05757 504:-0.00178 505:-0.04293 506:0.0594 507:-0.02613 508:0.00312 509:-0.02971 510:0.02565 511:0.02027 
0 0 0 0.13389097698596114 0 0 0 0 0 0 0 0 0 0:0.03626 1:-0.05292 2:0.05752 3:-0.14951 4:0.04964 5:0.01012 6:-0.03368 7:0.02474 8:-0.06291 9:-0.00036 10:-0.09954 11:0.0103 12:-0.02936 13:-0.09812 14:-0.03365 15:-0.01619 16:0.04037 17:-0.0422 18:0.01006 19:-0.01802 20:-0.0106 21:0.00793 22:0.01277 23:-0.02908 24:-0.07981 25:0.01599 26:-0.12182 27:-9e-05 28:-2e-05 29:-0.0202 30:0.02083 31:-0.01397 32:-0.00998 33:0.00384 34:-0.03945 35:0.03945 36:0.03062 37:0.00324 38:0.01413 39:0.01588 40:-0.00885 41:0.00214 42:0.02014 43:-0.07696 44:-0.03584 45:0.03709 46:0.00232 47:0.01796 48:-0.02611 49:0.1244 50:0.03027 51:-0.01024 52:0.00871 53:-0.00709 54:-0.0506 55:0.01759 56:0.00904 57:-0.02003 58:0.10238 59:-0.07351 60:-0.02583 61:-0.08767 62:-0.0495 63:0.07579 64:0.03896 65:0.01709 66:-0.01693 67:0.03161 68:0.02532 69:0.04173 70:0.0406 71:0.12945 72:0.09581 73:-0.01478 74:-0.00731 75:0.04212 76:0.00361 77:0.00469 78:-0.02315 79:0.06218 80:0.01996 81:-0.01502 82:0.00156 83:-0.02117 84:-0.03253 85:0.05859 86:0.00482 87:-0.04322 88:0.01566 89:0.02153 90:0.00411 91:-0.00604 92:-0.02381 93:-0.16737 94:-0.03662 95:-0.05096 96:-0.0285 97:-0.09233 98:0.00997 99:0.01204 100:-0.0624 101:0.04679 102:-0.03482 103:-0.01582 104:0.04958 105:-0.06747 106:-0.0186 107:-0.01365 108:-0.00245 109:0.02032 110:0.00583 111:0.00483 112:-0.02476 113:0.07661 114:-0.05414 115:0.02404 116:-0.03225 117:0.0218 118:-0.0567 119:-0.08023 120:0.03193 121:0.01775 122:-0.00855 123:-0.01176 124:-0.00699 125:0.07382 126:0.04833 127:0.02907 128:0.10395 129:-0.01774 130:0.0272 131:0.0249 132:0.05526 133:0.01834 134:-0.06261 135:0.01282 136:0.02973 137:-0.01555 138:0.069 139:0.00372 140:-0.02323 141:0.05993 142:0.02438 143:-0.02473 144:-0.02135 145:0.08487 146:0.06186 147:0.0261 148:0.02246 149:0.0422 150:0.02176 151:-0.0092 152:0.00482 153:-0.00253 154:0.05731 155:-0.04395 156:-0.02167 157:-0.00198 158:0.00691 159:0.01627 160:-0.01791 161:0.05725 162:0.02304 163:-0.08934 164:0.04089 165:-0.05799 166:0.00715 167:0.04371 168:-0.02009 169:-0.03598 170:0.0203 171:-0.05403 172:-0.04445 173:-0.01587 174:-0.06698 175:-0.01377 176:0.01305 177:-0.01671 178:0.04538 179:0.00353 180:0.01114 181:0.0587 182:0.06329 183:0.07605 184:-0.03404 185:-0.04059 186:-0.01898 187:-0.04552 188:0.0336 189:-0.00171 190:-0.01778 191:0.00091 192:-0.03839 193:-0.04187 194:0.10255 195:-0.02478 196:-0.0351 197:0.06329 198:-0.063 199:-0.05474 200:-0.01624 201:-0.08051 202:-0.01444 203:0.07871 204:-0.07245 205:-0.04781 206:-0.03153 207:-0.06028 208:-0.00987 209:-0.0443 210:-0.06901 211:-0.00063 212:0.09838 213:0.01872 214:0.0547 215:-0.07362 216:-0.04662 217:0.06103 218:-0.0208 219:0.00016 220:-0.02265 221:-0.02164 222:0.03682 223:-0.00709 224:-0.02291 225:0.01102 226:0.02545 227:-0.0297 228:0.07896 229:-0.03053 230:0.00726 231:0.01017 232:0.07645 233:0.08726 234:0.02586 235:0.01781 236:-0.01738 237:-0.04259 238:0.02635 239:-0.04185 240:0.05625 241:-0.01099 242:0.07664 243:0.02101 244:0.02672 245:-0.04326 246:0.0384 247:0.03161 248:0.00618 249:0.04872 250:-0.02722 251:-0.02134 252:-0.02645 253:-0.03 254:0.02285 255:-0.05876 256:0.02684 257:-0.03521 258:0.02436 259:0.0711 260:-0.01326 261:0.0836 262:0.00841 263:0.02213 264:-0.00439 265:-0.00264 266:0.04352 267:-0.05693 268:-0.0194 269:-0.07155 270:-0.0248 271:0.00809 272:-0.03446 273:0.00289 274:-0.00848 275:0.01224 276:-0.01663 277:0.08667 278:0.01443 279:-0.066 280:-0.03628 281:0.00477 282:0.01919 283:-0.02337 284:-0.02509 285:-0.01914 286:0.02306 287:0.02656 288:-0.03615 289:0.01473 290:0.00502 291:0.03654 292:-0.01584 293:0.01213 294:0.03038 295:-0.01152 296:0.03052 297:-0.00875 298:-0.01767 299:0.01437 300:-0.03944 301:0.0812 302:0.01132 303:0.04709 304:0.06191 305:-0.0144 306:-0.05272 307:-0.06949 308:-0.0198 309:0.06229 310:0.0527 311:-0.00402 312:-0.01288 313:0.05691 314:-0.00966 315:-0.01306 316:-0.03274 317:0.03189 318:-0.01891 319:-0.00625 320:-0.03033 321:-0.01617 322:-0.07259 323:-0.01624 324:-0.00837 325:-0.03992 326:0.02861 327:-0.01118 328:0.05257 329:-0.01939 330:-0.06683 331:-0.08239 332:0.06067 333:0.0023 334:-0.03214 335:0.0417 336:0.06501 337:0.01047 338:0.04622 339:-0.0293 340:0.02301 341:-0.00757 342:-0.0207 343:0.04898 344:0.02657 345:-0.01198 346:0.10162 347:-0.0414 348:-0.09123 349:0.03628 350:0.01674 351:0.03427 352:0.05098 353:0.0002 354:0.0404 355:-0.01033 356:-0.00578 357:-0.07881 358:0.05561 359:-0.05053 360:-0.00693 361:-0.04379 362:0.06816 363:-0.06088 364:0.03691 365:0.03329 366:0.00513 367:0.07434 368:0.00855 369:-0.0034 370:0.00485 371:-0.02203 372:-0.0358 373:0.02109 374:-0.00514 375:0.03245 376:0.02654 377:-0.05517 378:-0.00644 379:0.02034 380:0.01965 381:0.01104 382:0.02701 383:-0.00497 384:0.01974 385:-0.0911 386:0.05986 387:-0.0462 388:-0.01401 389:-0.03106 390:0.00901 391:-0.05406 392:0.02214 393:0.01451 394:-0.00735 395:0.0438 396:0.05234 397:0.04111 398:-0.04519 399:-0.08749 400:0.02065 401:0.06411 402:-0.07647 403:-0.0437 404:-0.01118 405:0.01539 406:-0.01199 407:0.03756 408:0.01496 409:0.03491 410:0.00149 411:-0.06028 412:-0.04374 413:0.04471 414:0.03718 415:0.02346 416:-0.01193 417:0.03507 418:-0.09326 419:0.09554 420:-0.00764 421:0.00935 422:-0.02977 423:-0.07468 424:0.00814 425:0.02629 426:0.0396 427:-0.03526 428:0.04437 429:0.04717 430:-0.01905 431:-0.00567 432:-0.13536 433:-0.01057 434:-0.03525 435:0.05352 436:0.04648 437:0.06966 438:0.03654 439:0.04791 440:0.01714 441:-0.06708 442:-0.01081 443:0.03309 444:0.00407 445:-0.03612 446:-0.01649 447:0.08232 448:0.0209 449:-0.00459 450:-0.00675 451:-0.02423 452:-0.06102 453:0.02961 454:0.00866 455:0.07832 456:-0.02305 457:-0.07035 458:0.01529 459:0.04376 460:-0.04951 461:0.0104 462:-0.09458 463:-0.06092 464:-0.01319 465:-0.00139 466:0.00485 467:0.04595 468:0.02547 469:0.01171 470:0.01847 471:0.02197 472:0.00321 473:0.05174 474:-0.04785 475:-0.09536 476:0.01807 477:-0.03392 478:-0.07936 479:-0.10724 480:-0.06292 481:-0.02045 482:-0.04615 483:-0.03604 484:-0.06358 485:0.07384 486:-0.00838 487:0.0124 488:0.02858 489:-0.03899 490:-0.06542 491:0.04319 492:0.06379 493:-0.03562 494:-0.00623 495:0.00313 496:0.03339 497:0.02602 498:-0.06119 499:-0.02361 500:-0.05139 501:0.06129 502:0.0253 503:0.05536 504:-0.02289 505:-0.06126 506:0.02618 507:-0.03501 508:-0.01049 509:-0.00292 510:0.01021 511:0.04489 
0 0 0.36854805237910615 0 0 0.66356886550869854 0 0 0 0 0.39510289036859125 0 0 0:0.05065 1:-0.05634 2:0.05708 3:-0.14228 4:0.05977 5:0.01548 6:-0.03407 7:0.03339 8:-0.06078 9:0.01451 10:-0.10654 11:0.00746 12:-0.0433 13:-0.10992 14:-0.03219 15:-0.0209 16:0.04142 17:-0.041 18:0.00595 19:-0.00194 20:-0.01852 21:0.00516 22:0.00901 23:-0.02201 24:-0.073 25:0.03423 26:-0.11361 27:0.0115 28:0.01091 29:-0.02119 30:0.02517 31:-0.00053 32:0.00123 33:0.0252 34:-0.046 35:0.02909 36:0.04213 37:0.01356 38:0.00775 39:0.01179 40:-0.01494 41:-0.00526 42:0.01241 43:-0.07815 44:-0.03347 45:0.0327 46:-0.00133 47:0.02628 48:-0.03541 49:0.12009 50:0.02668 51:-0.02556 52:0.0218 53:-0.00251 54:-0.0323 55:0.01345 56:0.01619 57:-0.01953 58:0.09521 59:-0.07167 60:-0.02461 61:-0.08652 62:-0.06739 63:0.07211 64:0.0501 65:0.00275 66:-0.00739 67:0.04623 68:0.01436 69:0.03101 70:0.03861 71:0.13113 72:0.07639 73:-0.01024 74:-0.00858 75:0.02696 76:-0.01014 77:0.01788 78:-0.02667 79:0.05575 80:0.02295 81:-0.01284 82:0.01947 83:-0.0254 84:-0.02978 85:0.05668 86:-0.00084 87:-0.04815 88:0.00546 89:0.03437 90:0.01143 91:-0.01487 92:-0.02338 93:-0.1582 94:-0.05554 95:-0.06664 96:-0.02311 97:-0.08986 98:-0.00776 99:-0.00126 100:-0.0563 101:0.05602 102:-0.02338 103:-0.01535 104:0.04884 105:-0.07047 106:-0.03478 107:-0.01179 108:-0.00664 109:0.03823 110:0.00906 111:0.01445 112:-0.01363 113:0.08339 114:-0.05831 115:0.02419 116:-0.01132 117:0.03385 118:-0.04859 119:-0.07591 120:0.02868 121:7e-05 122:-0.01386 123:-0.02269 124:-0.00475 125:0.06983 126:0.05994 127:0.03008 128:0.10148 129:-0.01494 130:0.01839 131:0.02886 132:0.05561 133:0.01155 134:-0.04404 135:0.02659 136:0.04919 137:-0.01983 138:0.07491 139:-0.00297 140:-0.02283 141:0.05389 142:0.01839 143:-0.01915 144:-0.01045 145:0.08352 146:0.06138 147:0.026 148:0.01424 149:0.04382 150:0.02606 151:-0.01739 152:0.00236 153:-0.01642 154:0.04236 155:-0.03496 156:-0.02048 157:0.00289 158:0.0268 159:0.01299 160:-0.00337 161:0.05669 162:0.02713 163:-0.07523 164:0.03837 165:-0.03793 166:0.01656 167:0.04129 168:-0.02206 169:-0.0368 170:0.03312 171:-0.05616 172:-0.04868 173:-0.01681 174:-0.07932 175:-0.01002 176:0.01168 177:-0.02629 178:0.03854 179:0.00988 180:0.01818 181:0.05547 182:0.04618 183:0.07952 184:-0.02557 185:-0.02998 186:-0.02722 187:-0.04185 188:0.03228 189:-0.00244 190:-0.02184 191:-0.00276 192:-0.0231 193:-0.02325 194:0.08852 195:-0.01532 196:-0.03319 197:0.07748 198:-0.066 199:-0.05571 200:0.00171 201:-0.07899 202:0.00375 203:0.07384 204:-0.06997 205:-0.03989 206:-0.02425 207:-0.06033 208:-0.01391 209:-0.05198 210:-0.04248 211:0.00803 212:0.07974 213:0.01887 214:0.05213 215:-0.07186 216:-0.04756 217:0.05411 218:-0.0082 219:-0.01429 220:-0.02164 221:-0.0163 222:0.02099 223:-0.01399 224:-0.0001 225:0.00355 226:0.03018 227:-0.02629 228:0.08053 229:-0.02102 230:0.00485 231:0.00199 232:0.08701 233:0.09518 234:0.00184 235:0.0232 236:-0.01566 237:-0.05282 238:0.03183 239:-0.05281 240:0.06275 241:-0.00729 242:0.07524 243:0.01775 244:0.01104 245:-0.03175 246:0.06263 247:0.01926 248:-0.00721 249:0.03419 250:-0.00401 251:-0.0011 252:-0.02306 253:-0.04589 254:0.02131 255:-0.08914 256:0.01582 257:-0.02774 258:0.03907 259:0.069 260:-0.00691 261:0.07938 262:-0.00581 263:0.00744 264:0.00339 265:-0.01171 266:0.04482 267:-0.05103 268:-0.00348 269:-0.06466 270:-0.02355 271:-0.00614 272:-0.03249 273:0.00091 274:0.00237 275:0.00454 276:-0.01923 277:0.08953 278:0.00158 279:-0.07915 280:-0.0472 281:-0.02186 282:0.01013 283:-0.02056 284:-0.02291 285:-0.03734 286:0.01049 287:0.05243 288:-0.04722 289:-0.00204 290:-0.00564 291:0.01441 292:-0.02337 293:0.01167 294:0.03141 295:-0.01093 296:0.01032 297:-0.01041 298:-0.01689 299:0.01097 300:-0.04346 301:0.09432 302:0.00605 303:0.04985 304:0.05219 305:-0.02418 306:-0.05631 307:-0.06921 308:-0.03585 309:0.05272 310:0.04053 311:0.01198 312:-0.03157 313:0.0505 314:-0.01605 315:-0.01058 316:-0.04235 317:0.03861 318:-0.01033 319:-0.00728 320:-0.01249 321:-0.0171 322:-0.08168 323:-0.01644 324:-0.01047 325:-0.03728 326:0.03576 327:-0.00078 328:0.04935 329:-0.02177 330:-0.06538 331:-0.06642 332:0.0775 333:-0.00719 334:-0.02409 335:0.05216 336:0.07659 337:-0.01833 338:0.04839 339:-0.02233 340:0.02416 341:-0.00222 342:-0.0296 343:0.05625 344:0.0444 345:-0.02392 346:0.10407 347:-0.03976 348:-0.10718 349:0.01982 350:0.02206 351:0.04109 352:0.04831 353:-0.00991 354:0.03822 355:-0.01998 356:-0.00657 357:-0.07778 358:0.05349 359:-0.04984 360:-0.01899 361:-0.03884 362:0.08619 363:-0.05382 364:0.04372 365:0.02764 366:0.00048 367:0.09298 368:0.01215 369:0.02226 370:-0.00213 371:-0.01654 372:-0.027 373:0.02329 374:-0.00819 375:0.03763 376:0.02779 377:-0.04565 378:-0.0026 379:0.01636 380:0.02416 381:0.01519 382:0.01805 383:-0.00088 384:0.02601 385:-0.09392 386:0.06478 387:-0.04233 388:-0.02951 389:-0.03608 390:0.00806 391:-0.04944 392:0.00753 393:0.01066 394:0.00205 395:0.04644 396:0.05483 397:0.03635 398:-0.04478 399:-0.08378 400:0.00185 401:0.0564 402:-0.07928 403:-0.04413 404:-0.01272 405:0.01193 406:-0.02771 407:0.03709 408:0.00437 409:0.04745 410:0.01385 411:-0.04653 412:-0.04768 413:0.0411 414:0.04392 415:0.04246 416:-0.02228 417:0.03689 418:-0.08242 419:0.09628 420:0.00109 421:0.00129 422:-0.02736 423:-0.06252 424:-0.00765 425:0.02283 426:0.03549 427:-0.03875 428:0.04785 429:0.03342 430:-0.01762 431:0.01138 432:-0.13203 433:-0.01034 434:-0.03301 435:0.06834 436:0.05708 437:0.08045 438:0.04666 439:0.0524 440:0.01824 441:-0.06219 442:-0.01566 443:0.04238 444:-0.02462 445:-0.03207 446:-0.01908 447:0.08366 448:0.01186 449:-0.00988 450:-0.01372 451:-0.02342 452:-0.06729 453:0.02679 454:-0.01053 455:0.06313 456:-0.01718 457:-0.03829 458:0.01663 459:0.04682 460:-0.04407 461:-0.00896 462:-0.09177 463:-0.04524 464:-0.00411 465:0.00378 466:0.01064 467:0.04774 468:0.01153 469:0.00363 470:0.03514 471:0.01365 472:0.00102 473:0.05159 474:-0.0426 475:-0.08554 476:0.02591 477:-0.01297 478:-0.06039 479:-0.09429 480:-0.05347 481:-0.0162 482:-0.04821 483:-0.03853 484:-0.06869 485:0.07193 486:-0.01667 487:0.00791 488:0.02503 489:-0.0233 490:-0.05289 491:0.04209 492:0.0804 493:-0.03735 494:-0.00427 495:-0.00289 496:0.04207 497:0.03256 498:-0.05768 499:-0.02867 500:-0.04518 501:0.06353 502:0.03386 503:0.06307 504:-0.00897 505:-0.08498 506:0.042 507:-0.03683 508:-0.00306 509:-0.02063 510:0.01579 511:0.0527 
0 0 0 0 0 0 0 0 0 0.097896276616042915 0 0 0 0:0.03809 1:-0.07211 2:0.04871 3:-0.13642 4:0.06819 5:0.01828 6:0.00488 7:0.02289 8:-0.02419 9:0.03763 10:-0.08729 11:-0.01721 12:-0.02084 13:-0.09545 14:-0.00093 15:-0.01539 16:0.07928 17:-0.0463 18:0.03147 19:-0.02023 20:-0.05374 21:0.01791 22:0.03164 23:-0.03683 24:-0.06577 25:0.02551 26:-0.12627 27:-0.00055 28:0.01746 29:-0.02731 30:0.03616 31:0.00902 32:-0.0247 33:0.00318 34:-0.04429 35:0.03099 36:-0.02304 37:-0.04952 38:-0.00115 39:0.02899 40:0.00849 41:-0.0298 42:-0.00769 43:-0.03586 44:-0.00551 45:0.03104 46:0.00545 47:0.00458 48:-0.00972 49:0.14051 50:0.02034 51:0.01741 52:0.01656 53:0.03874 54:-0.0009 55:0.03686 56:0.00576 57:-0.04901 58:0.09482 59:-0.06391 60:0.00339 61:-0.08067 62:-0.04758 63:0.06766 64:0.04234 65:0.03328 66:-0.03322 67:0.03635 68:0.01849 69:0.01341 70:0.03946 71:0.14539 72:0.06737 73:-0.01844 74:-0.04028 75:0.06759 76:0.02626 77:0.0223 78:-0.03364 79:0.0719 80:0.01594 81:-0.01859 82:0.00936 83:0.0037 84:0.00408 85:0.07926 86:0.00184 87:-0.06007 88:0.00703 89:0.01427 90:0.02057 91:-0.01457 92:-0.02074 93:-0.13434 94:-0.07251 95:-0.05573 96:-0.00314 97:-0.03073 98:0.0038 99:0.03976 100:-0.06408 101:-0.00385 102:-0.0289 103:0.02254 104:0.02442 105:-0.02885 106:0.0011 107:-0.0242 108:-0.01423 109:0.01794 110:0.03765 111:-0.04291 112:-0.02169 113:0.12505 114:-0.02542 115:0.01271 116:-0.01762 117:0.0336 118:-0.05825 119:-0.08182 120:0.04592 121:-0.01606 122:0.00678 123:-0.02209 124:0.02025 125:0.04635 126:0.03495 127:-0.01555 128:0.04783 129:0.00424 130:0.00416 131:0.05646 132:0.05718 133:0.03372 134:-0.06654 135:-0.00519 136:0.04069 137:0.00949 138:0.07009 139:-0.024 140:-0.03913 141:0.00167 142:-0.00258 143:-0.01732 144:-0.02271 145:0.00887 146:0.04463 147:-0.00596 148:-0.00474 149:0.02111 150:-0.00962 151:-0.02107 152:-0.01097 153:-0.05203 154:0.08001 155:-0.01588 156:-0.01366 157:-0.00687 158:-0.01458 159:-0.02058 160:-0.00078 161:0.01391 162:0.02466 163:-0.07563 164:0.05054 165:-0.04189 166:-0.00589 167:0.05185 168:-0.01182 169:-0.06611 170:0.00764 171:-0.05237 172:0.01378 173:-0.01867 174:-0.08441 175:-0.01632 176:-0.01075 177:-0.01358 178:0.03598 179:-0.01535 180:0.0425 181:0.01886 182:0.05024 183:0.09595 184:0.00806 185:-0.04017 186:-0.01176 187:0.01023 188:0.01398 189:-0.03333 190:0.0037 191:0.0198 192:0.00297 193:-0.02625 194:0.08409 195:0.02287 196:0.01396 197:0.05127 198:-0.07904 199:-0.04684 200:-0.00434 201:-0.06587 202:-0.00205 203:0.06382 204:-0.01221 205:-0.01691 206:0.03221 207:-0.02723 208:0.01913 209:-0.06108 210:-0.04167 211:0.04384 212:0.09422 213:0.06526 214:0.05032 215:-0.07789 216:-0.04238 217:0.06883 218:0.00739 219:-0.0088 220:-0.03042 221:-0.02537 222:0.02766 223:0.01198 224:0.01128 225:-0.00222 226:0.02699 227:-0.04966 228:0.10117 229:-0.04029 230:0.01843 231:0.03344 232:0.07498 233:0.10963 234:0.02973 235:0.06215 236:-0.02554 237:-0.00895 238:-0.0198 239:-0.07639 240:0.08815 241:0.03333 242:0.04112 243:0.0308 244:0.02054 245:-0.06388 246:-5e-05 247:0.05468 248:0.00761 249:0.04373 250:0.00694 251:-0.05108 252:-0.01325 253:0.00259 254:0.01512 255:-0.06936 256:-0.00292 257:0.03139 258:0.04656 259:0.04632 260:0.00814 261:0.05076 262:-0.0222 263:0.035 264:0.00264 265:0.02098 266:0.05805 267:-0.03811 268:0.02425 269:-0.10108 270:-0.01825 271:0.02329 272:-0.02278 273:-0.01856 274:0.00583 275:0.01632 276:-0.01271 277:0.10112 278:0.0061 279:-0.0363 280:-0.04847 281:-0.00621 282:0.01474 283:-0.00887 284:0.02269 285:-0.01074 286:-0.02379 287:0.04439 288:-0.03225 289:-0.00654 290:0.00857 291:0.01287 292:0.00714 293:-0.01592 294:0.01361 295:-0.00846 296:0.05779 297:0.05689 298:0.0314 299:-0.01374 300:-0.0175 301:0.06966 302:0.00297 303:0.03999 304:0.05372 305:0.00341 306:-0.05077 307:-0.04219 308:-0.0282 309:0.07916 310:0.0866 311:-0.00952 312:-0.06222 313:0.0265 314:-0.04761 315:0.02625 316:-0.02525 317:-0.02769 318:-0.01464 319:-0.03406 320:-0.03796 321:-0.03087 322:-0.10353 323:-0.01433 324:-0.02013 325:-0.02302 326:0.05779 327:-0.00892 328:0.03498 329:-0.04981 330:-0.07554 331:-0.05583 332:0.01476 333:-0.04493 334:-0.02607 335:0.04868 336:0.06242 337:0.01592 338:0.00172 339:-0.02597 340:0.03077 341:0.00943 342:-0.01155 343:0.04392 344:0.03757 345:-0.00791 346:0.05429 347:-0.04132 348:-0.10027 349:0.05459 350:0.01862 351:0.02611 352:0.03731 353:0.03113 354:-0.00194 355:-0.02389 356:-0.0627 357:-0.07075 358:0.04406 359:-0.10544 360:-0.01641 361:0.03191 362:0.04028 363:-0.06494 364:0.03545 365:0.02335 366:-0.02322 367:0.06197 368:0.00509 369:0.03467 370:0.00537 371:-0.01115 372:-0.01135 373:0.06766 374:0.00495 375:0.0344 376:0.00045 377:-0.0999 378:-0.01562 379:0.00034 380:0.00443 381:0.04675 382:0.01712 383:-0.03244 384:0.01821 385:-0.09052 386:0.08003 387:-0.02983 388:-0.01 389:-0.00541 390:0.00722 391:-0.02215 392:0.0242 393:0.01082 394:0.01989 395:0.04531 396:0.04015 397:0.03692 398:-0.08529 399:-0.03669 400:0.05639 401:0.06085 402:-0.06703 403:-0.01928 404:0.03522 405:0.05428 406:-0.02624 407:0.04268 408:-0.05115 409:0.05178 410:0.00534 411:-0.01119 412:-0.03103 413:0.00293 414:0.04516 415:0.03219 416:-0.00998 417:0.00048 418:-0.11729 419:0.04507 420:-0.01472 421:0.00199 422:-0.01075 423:-0.09038 424:0.00369 425:0.01652 426:0.06464 427:-0.04227 428:0.06427 429:0.09141 430:-0.03142 431:-0.01655 432:-0.08144 433:-0.00659 434:0.01107 435:0.11132 436:0.07547 437:0.07554 438:0.05362 439:0.03887 440:0.01952 441:-0.02326 442:-0.00944 443:0.02332 444:-0.03862 445:-0.03323 446:-0.05025 447:0.07758 448:0.00438 449:-0.02362 450:-0.02375 451:-0.0503 452:-0.02948 453:0.01995 454:0.02141 455:0.04389 456:0.00998 457:-0.05071 458:-0.00151 459:0.00446 460:-0.02528 461:0.00096 462:-0.11767 463:-0.05973 464:0.01534 465:0.01586 466:0.03658 467:0.06886 468:0.01681 469:-0.01448 470:0.06148 471:0.00251 472:-0.00028 473:0.03445 474:-0.01876 475:-0.06727 476:0.01714 477:-0.00117 478:-0.05863 479:-0.02054 480:-0.01756 481:-0.03865 482:-0.00377 483:-0.01092 484:-0.06667 485:0.09997 486:-0.01951 487:0.03412 488:0.02325 489:-0.02169 490:-0.11104 491:0.07116 492:-0.00316 493:-0.03849 494:0.03076 495:0.01501 496:0.02873 497:-0.01354 498:-0.06161 499:-0.02387 500:-0.04429 501:0.01004 502:0.02647 503:0.10764 504:0.007 505:-0.04173 506:0.03716 507:-0.01346 508:0.00275 509:-0.03154 510:0.00824 511:0.02833 
0.71163216676049745 0 0 0 0 0 0 1 0 0 0 0 0.83346648588575645 0:0.01503 1:-0.07067 2:0.04318 3:-0.15058 4:0.04669 5:0.03849 6:-0.01114 7:-0.01497 8:-0.05139 9:0.00984 10:-0.09608 11:-0.02134 12:-0.01992 13:-0.0855 14:-0.00963 15:-0.00696 16:0.03436 17:-0.03315 18:0.01814 19:-0.03616 20:-0.01634 21:0.031 22:0.0453 23:-0.03629 24:-0.06855 25:0.05319 26:-0.07135 27:-0.02814 28:-0.02626 29:0.00243 30:0.04048 31:0.00834 32:-0.00582 33:0.03623 34:-0.04193 35:0.03304 36:-0.04072 37:-0.00962 38:0.00765 39:0.04502 40:-0.00259 41:-0.00418 42:-0.02804 43:-0.04151 44:-0.01861 45:0.0342 46:0.01363 47:0.02709 48:-0.02368 49:0.14851 50:0.01924 51:0.02124 52:0.03522 53:0.02329 54:0.0173 55:0.07115 56:0.02565 57:-0.0671 58:0.09448 59:-0.02938 60:-0.02055 61:-0.0918 62:-0.04372 63:0.04973 64:0.0521 65:0.05486 66:-0.05636 67:0.00927 68:0.03032 69:0.00845 70:0.04258 71:0.12478 72:0.08351 73:0.00258 74:-0.03317 75:0.05399 76:0.00796 77:0.01074 78:-0.04738 79:0.05633 80:0.00856 81:-0.01448 82:-0.03382 83:0.0038 84:-0.02552 85:0.02701 86:0.03333 87:-0.05892 88:0.0176 89:0.00989 90:-0.00781 91:-0.01749 92:0.00284 93:-0.1673 94:-0.03295 95:-0.03374 96:-0.01938 97:-0.04549 98:0.01963 99:0.04088 100:-0.03455 101:0.02083 102:-0.05639 103:0.01399 104:0.03697 105:-0.04121 106:0.0065 107:-0.04126 108:-0.01808 109:-0.01 110:0.0014 111:0.00831 112:-0.05067 113:0.0753 114:-0.06453 115:0.02221 116:-0.05076 117:-0.0007 118:0.00314 119:-0.06852 120:0.02601 121:0.02075 122:-0.01306 123:-0.01988 124:-0.01193 125:0.08539 126:0.03585 127:0.04475 128:0.07116 129:-0.01844 130:0.04412 131:0.0235 132:0.08667 133:0.01881 134:-0.05664 135:0.00386 136:0.0003 137:-0.00468 138:0.07038 139:-0.00919 140:-0.02646 141:0.02522 142:-0.01233 143:-0.02714 144:-0.01193 145:0.0648 146:0.05385 147:0.01731 148:0.01133 149:-0.00712 150:0.00978 151:0.02734 152:-0.00616 153:-0.03157 154:0.0835 155:-0.06983 156:-0.02309 157:-0.02788 158:0.02017 159:-0.0127 160:-0.00738 161:0.05195 162:0.01674 163:-0.11681 164:0.05977 165:-0.03128 166:-0.01559 167:0.02381 168:-0.02445 169:-0.03277 170:0.00249 171:-0.02556 172:0.05227 173:-0.0129 174:-0.0617 175:-0.03654 176:-0.00154 177:-0.028 178:0.06509 179:-0.00685 180:-0.00817 181:0.0306 182:0.06915 183:0.07689 184:-0.00126 185:-0.02161 186:-0.00679 187:0.01251 188:0.04138 189:0.00112 190:0.00845 191:0.02132 192:-0.02449 193:-0.05882 194:0.06167 195:0.01919 196:-0.04237 197:0.04692 198:-0.05802 199:-0.06532 200:0.00276 201:-0.06398 202:-0.02763 203:0.08491 204:-0.01525 205:-0.01365 206:0.00982 207:-0.04077 208:-0.00972 209:-0.06051 210:-0.02496 211:-0.00056 212:0.0778 213:0.05798 214:0.04531 215:-0.08606 216:-0.0625 217:0.05482 218:-0.034 219:0.00849 220:-0.02394 221:0.01041 222:0.01614 223:-0.01159 224:-0.02601 225:0.01143 226:-0.00551 227:-0.01015 228:0.10126 229:-0.02932 230:0.00755 231:0.02144 232:0.02133 233:0.10535 234:0.0231 235:0.02113 236:-0.00027 237:-0.00612 238:0.02018 239:-0.04663 240:0.07342 241:0.00622 242:0.06106 243:0.0346 244:0.02695 245:-0.03302 246:-0.00335 247:0.04654 248:0.0284 249:0.0345 250:-0.0107 251:-0.04528 252:-0.00453 253:-0.02462 254:0.03286 255:-0.02496 256:-0.02113 257:0.05419 258:0.03608 259:0.05748 260:-0.02498 261:0.0199 262:-0.00154 263:0.05301 264:-0.01658 265:0.04156 266:0.04468 267:-0.04639 268:0.00518 269:-0.08908 270:-0.00096 271:-0.02244 272:-0.03378 273:0.01195 274:0.0257 275:0.00461 276:-0.01126 277:0.07169 278:0.0072 279:-0.03534 280:-0.03617 281:0.03573 282:0.04767 283:-0.04175 284:0.00284 285:-0.00974 286:0.02642 287:0.0156 288:-0.03879 289:-0.00721 290:0.03756 291:0.01139 292:-0.03852 293:-0.00251 294:0.03145 295:-0.02082 296:0.02751 297:-0.00346 298:0.04218 299:-0.00867 300:-0.01942 301:0.04469 302:0.00862 303:0.03475 304:0.07087 305:-0.01362 306:-0.00778 307:-0.03746 308:-0.05086 309:0.01694 310:0.07361 311:-0.05113 312:-0.01194 313:0.03754 314:-0.07852 315:-0.00214 316:-0.04739 317:0.01354 318:-0.00169 319:-0.03879 320:-0.03081 321:-0.02183 322:-0.10271 323:-0.05215 324:0.00508 325:-0.02805 326:0.06726 327:-0.01475 328:0.05733 329:-0.01441 330:-0.05808 331:-0.07154 332:0.02522 333:-0.01152 334:-0.03392 335:0.04365 336:0.06655 337:0.0208 338:-0.00575 339:-0.00444 340:0.0307 341:-0.00075 342:0.02543 343:-0.00463 344:0.04883 345:-0.01182 346:0.07549 347:-0.05316 348:-0.08702 349:0.04153 350:-0.00191 351:0.03654 352:0.04864 353:0.01781 354:-0.00557 355:-0.01561 356:-0.04008 357:-0.08146 358:0.04404 359:-0.06358 360:-0.02207 361:-0.01996 362:0.03877 363:-0.08267 364:0.04597 365:0.05185 366:-0.00499 367:0.088 368:0.00473 369:0.0055 370:0.01063 371:-0.00179 372:-0.03459 373:0.04957 374:0.01287 375:0.04651 376:-0.04003 377:-0.08756 378:-0.01246 379:0.02002 380:0.0067 381:0.02914 382:0.00655 383:-0.01334 384:0.0031 385:-0.06755 386:0.03216 387:-0.01482 388:-0.01753 389:-0.01499 390:0.01892 391:0.01267 392:0.06487 393:-0.00515 394:-0.02685 395:0.01713 396:0.0377 397:0.03302 398:-0.07777 399:-0.06582 400:0.02722 401:0.05084 402:-0.05154 403:-0.06747 404:0.04784 405:0.05551 406:-0.06042 407:0.026 408:-0.01994 409:0.05783 410:0.01915 411:-0.00935 412:-0.02917 413:0.0224 414:0.01264 415:0.00155 416:-0.04677 417:0.01908 418:-0.0618 419:0.07295 420:-0.05336 421:-0.00807 422:-0.0754 423:-0.08144 424:0.05419 425:0.01697 426:0.03661 427:-0.01806 428:0.07773 429:0.07466 430:-0.02595 431:-0.03005 432:-0.08817 433:0.00495 434:-0.00585 435:0.07111 436:0.05291 437:0.03471 438:0.04373 439:0.03833 440:0.05086 441:-0.03651 442:0.00977 443:-0.00991 444:0.00285 445:-0.05668 446:-0.028 447:0.08503 448:-0.03393 449:-0.00864 450:-0.05019 451:-0.06305 452:-0.05639 453:0.02308 454:0.04688 455:0.06967 456:-0.02954 457:-0.09314 458:-0.02959 459:0.04028 460:-0.04647 461:0.02023 462:-0.10574 463:-0.12069 464:-0.02299 465:-0.02206 466:0.04147 467:0.09168 468:0.02599 469:0.00374 470:0.0473 471:0.03893 472:0.01606 473:0.06182 474:-0.0019 475:-0.079 476:0.00124 477:-0.06277 478:-0.08085 479:-0.05977 480:-0.04251 481:-0.02505 482:-0.0704 483:-0.01383 484:-0.08498 485:0.08882 486:-0.00127 487:0.0057 488:0.02475 489:-0.05252 490:-0.12197 491:0.05914 492:-0.02282 493:-0.03128 494:0.02337 495:0.018 496:0.0099 497:-0.01805 498:-0.0609 499:-0.01825 500:-0.01961 501:0.00353 502:0.0519 503:0.06957 504:-0.01543 505:-0.04774 506:0.02271 507:-0.02069 508:-0.00247 509:-0.00819 510:0.01393 511:0.07383 
0 0.33104267320025837 0 0.073395725730998701 0 0 0 0.094078670306107393 0.024519256321163786 0 0 0 0.14910526618539885 0:0.04126 1:-0.04436 2:0.08125 3:-0.15558 4:0.05953 5:0.0377 6:0.00077 7:-0.00754 8:-0.03779 9:-0.01523 10:-0.08152 11:-0.01006 12:-0.05012 13:-0.08506 14:-0.012 15:-0.03284 16:0.04163 17:-0.03273 18:0.00615 19:-0.0108 20:-0.02282 21:0.02701 22:0.00725 23:-0.0291 24:-0.07152 25:0.04342 26:-0.08239 27:-0.02747 28:-0.0231 29:-0.00535 30:0.01676 31:0.01486 32:-0.00143 33:0.03952 34:-0.05252 35:0.01687 36:-0.0233 37:0.01339 38:-0.0028 39:0.02945 40:0.03006 41:-0.01062 42:-0.01538 43:-0.04188 44:0.01065 45:0.03901 46:-0.00699 47:0.02658 48:-0.03989 49:0.15655 50:0.01661 51:0.01402 52:0.00955 53:0.01243 54:-0.00476 55:0.05 56:0.00475 57:-0.0405 58:0.10874 59:-0.04286 60:-0.01305 61:-0.09461 62:-0.03992 63:0.03546 64:0.05566 65:0.0337 66:-0.01915 67:0.03911 68:0.01897 69:0.02506 70:0.03822 71:0.11378 72:0.09272 73:0.00018 74:-0.02966 75:0.05166 76:-0.01114 77:0.0134 78:-0.03557 79:0.02946 80:0.00577 81:-0.00647 82:-0.02077 83:-0.00343 84:-0.03613 85:0.02604 86:0.04407 87:-0.06457 88:0.01761 89:0.02582 90:-0.00036 91:-0.04113 92:-0.03312 93:-0.15397 94:-0.02987 95:-0.07631 96:-0.02827 97:-0.03866 98:0.01574 99:0.02606 100:-0.05932 101:0.01336 102:-0.0265 103:-0.01894 104:0.0399 105:-0.05373 106:-0.00503 107:-0.02387 108:-0.0018 109:-0.00542 110:0.0272 111:0.01921 112:-0.0377 113:0.09308 114:-0.05521 115:0.01779 116:-0.05325 117:-0.0017 118:-0.00625 119:-0.05118 120:0.04285 121:0.01129 122:-0.01796 123:-0.01721 124:-0.03097 125:0.08361 126:0.02529 127:0.06143 128:0.08459 129:0.00733 130:0.0431 131:0.01103 132:0.05609 133:0.0245 134:-0.05386 135:0.00493 136:-0.00469 137:-0.00964 138:0.05806 139:-0.00448 140:-0.02477 141:0.03535 142:-0.01097 143:-0.03983 144:-0.02556 145:0.05493 146:0.0603 147:0.02105 148:0.03068 149:0.01268 150:0.01309 151:0.02802 152:0.02046 153:-0.01678 154:0.07897 155:-0.0691 156:-0.01516 157:-0.02519 158:0.01093 159:0.01863 160:-0.01351 161:0.02973 162:0.00966 163:-0.09104 164:0.01973 165:-0.04098 166:-0.01327 167:0.03073 168:-0.05574 169:-0.02638 170:0.00835 171:-0.02657 172:0.03238 173:-0.0185 174:-0.05673 175:-0.03917 176:-0.00447 177:-0.02449 178:0.06703 179:0.00536 180:0.00141 181:0.06179 182:0.06532 183:0.08304 184:-0.00276 185:-0.01923 186:-0.02872 187:-0.02185 188:0.03888 189:-0.00585 190:0.00531 191:0.0081 192:-0.04238 193:-0.06674 194:0.05267 195:0.02201 196:-0.05275 197:0.0339 198:-0.06148 199:-0.05254 200:0.02578 201:-0.04879 202:-0.02144 203:0.06597 204:-0.03322 205:-0.05285 206:0.01911 207:-0.04904 208:-0.0053 209:-0.02207 210:-0.02836 211:-0.01371 212:0.08843 213:0.0453 214:0.03228 215:-0.06196 216:-0.05748 217:0.06203 218:-0.01772 219:0.01205 220:-0.04461 221:-0.00526 222:0.03165 223:0.00942 224:-0.02564 225:0.03139 226:0.01656 227:-0.02891 228:0.09376 229:-0.01734 230:0.0157 231:0.04384 232:0.05081 233:0.09641 234:0.0228 235:0.02167 236:-0.01082 237:-0.0151 238:0.02118 239:-0.04025 240:0.09533 241:0.00047 242:0.07846 243:0.02835 244:0.03278 245:-0.0252 246:0.00795 247:0.03632 248:0.00082 249:0.03359 250:-0.01506 251:-0.01175 252:-0.01732 253:-0.00758 254:0.02528 255:-0.02711 256:-0.00655 257:0.04007 258:0.03604 259:0.08641 260:-0.02807 261:0.04941 262:-0.00568 263:0.04959 264:0.00334 265:0.02107 266:0.04899 267:-0.05048 268:0.02026 269:-0.09591 270:-7e-05 271:-0.01996 272:-0.02746 273:0.00852 274:0.0207 275:0.01872 276:-0.02704 277:0.06661 278:0.02587 279:-0.03655 280:-0.06464 281:0.02856 282:0.04447 283:-0.05499 284:0.00497 285:-0.0078 286:0.0281 287:0.02119 288:-0.04482 289:-0.03071 290:0.02453 291:0.02301 292:-0.00804 293:0.0071 294:0.02464 295:-0.00418 296:0.02795 297:-0.00882 298:0.00381 299:0.00947 300:-0.05452 301:0.06138 302:-0.01554 303:0.02307 304:0.06181 305:-0.02048 306:-0.00943 307:-0.04129 308:-0.01262 309:0.06294 310:0.06771 311:-0.0244 312:0.00462 313:0.05774 314:-0.05064 315:0.00561 316:-0.06426 317:0.00306 318:-0.01738 319:-0.06656 320:-0.02159 321:-0.02798 322:-0.08216 323:-0.05094 324:0.00664 325:-0.02743 326:0.05308 327:-0.0139 328:0.0442 329:-0.01052 330:-0.0772 331:-0.08239 332:0.02316 333:-0.02376 334:-0.0293 335:0.056 336:0.06094 337:0.01996 338:0.0011 339:-0.03267 340:0.02787 341:0.02403 342:0.0116 343:0.01178 344:0.03127 345:0.02114 346:0.08437 347:-0.03725 348:-0.09756 349:0.05235 350:0.00197 351:0.0531 352:0.06746 353:0.01297 354:0.01771 355:-0.00344 356:-0.04347 357:-0.09657 358:0.04287 359:-0.04507 360:0.00821 361:-0.04134 362:0.06395 363:-0.0506 364:0.03574 365:0.03922 366:0.00472 367:0.08011 368:0.01457 369:-0.00715 370:-0.00061 371:-0.01084 372:-0.02556 373:0.07171 374:0.00619 375:0.03328 376:-0.01848 377:-0.08381 378:-0.01012 379:0.02505 380:0.00883 381:0.01803 382:-0.0038 383:-0.011 384:0.02562 385:-0.07313 386:0.03593 387:-0.02508 388:-0.02088 389:-0.02579 390:0.01015 391:-0.01102 392:0.0696 393:0.02694 394:-0.00183 395:0.02315 396:0.04364 397:0.0338 398:-0.05158 399:-0.05738 400:0.03328 401:0.05947 402:-0.05492 403:-0.04977 404:0.02597 405:0.04122 406:-0.05047 407:0.01426 408:-0.02295 409:0.0626 410:0.01511 411:-0.01477 412:-0.04545 413:0.021 414:0.04285 415:0.00991 416:-0.00261 417:0.02608 418:-0.07554 419:0.07456 420:-0.03922 421:-0.00446 422:-0.06346 423:-0.0878 424:0.05388 425:0.04236 426:0.03575 427:-0.02647 428:0.0555 429:0.06713 430:-0.03808 431:-0.05716 432:-0.07933 433:0.01127 434:-0.01547 435:0.09137 436:0.04083 437:0.06152 438:0.04175 439:0.03129 440:0.06364 441:-0.0526 442:-0.00018 443:-0.01491 444:0.00452 445:-0.04287 446:-0.03064 447:0.10488 448:-0.01481 449:-0.01102 450:-0.02961 451:-0.06255 452:-0.07318 453:0.03272 454:0.0503 455:0.08009 456:-0.01821 457:-0.08287 458:-0.02164 459:0.05606 460:-0.04353 461:0.01679 462:-0.1049 463:-0.1001 464:-0.01326 465:-0.04842 466:0.05567 467:0.06566 468:0.01919 469:0.01222 470:0.04943 471:0.02707 472:0.01825 473:0.05352 474:0.01401 475:-0.0412 476:0.00919 477:-0.05898 478:-0.09248 479:-0.05566 480:-0.06928 481:-0.03609 482:-0.09352 483:-0.00577 484:-0.06948 485:0.10837 486:0.01401 487:0.02176 488:0.01883 489:-0.04724 490:-0.10374 491:0.07545 492:0.02761 493:-0.04301 494:0.00687 495:-0.01159 496:0.01772 497:0.00735 498:-0.06503 499:-0.02436 500:-0.02936 501:0.03833 502:0.05295 503:0.07852 504:-0.03031 505:-0.06148 506:0.02344 507:-0.02668 508:-0.02827 509:-6e-05 510:0.01305 511:0.03785 
0.53338747016757293 0 0.31909402391203329 0 0 0 0 0 0.052936726953227757 0.40435251056699822 0 0.22114589818655764 0.33209764790514773 0:-0.00719 1:-0.07537 2:0.04874 3:-0.14295 4:0.06544 5:0.01228 6:-0.00448 7:0.00539 8:-0.04873 9:0.01099 10:-0.07295 11:-0.01339 12:-0.05285 13:-0.0898 14:-0.01657 15:-0.0365 16:0.05838 17:-0.00581 18:0.01463 19:0.01679 20:-0.03394 21:0.0094 22:0.03543 23:-0.02643 24:-0.07313 25:0.06234 26:-0.119 27:-0.00799 28:-0.0404 29:0.0015 30:0.04717 31:-0.02324 32:-0.03091 33:-0.02755 34:-0.05425 35:0.04083 36:-0.08219 37:-0.05229 38:0.01278 39:0.02877 40:0.01392 41:-0.03444 42:0.01452 43:-0.03481 44:-0.00566 45:0.03348 46:0.0043 47:0.01521 48:-0.01278 49:0.18512 50:-0.00865 51:-0.00623 52:0.03127 53:0.04332 54:0.00719 55:0.0601 56:0.02074 57:-0.03402 58:0.07589 59:-0.03258 60:0.0075 61:-0.08591 62:-0.01731 63:0.07092 64:0.03505 65:0.03658 66:-0.03451 67:0.00497 68:0.02312 69:0.02348 70:0.084 71:0.11932 72:0.07632 73:0.00017 74:-0.05482 75:0.06716 76:0.01724 77:0.01122 78:-0.01117 79:0.04444 80:0.03647 81:-0.0298 82:-0.01541 83:0.0196 84:-0.04559 85:0.01981 86:0.03823 87:-0.05062 88:0.02134 89:0.02412 90:0.00803 91:-0.03543 92:-0.03323 93:-0.16693 94:-0.05253 95:-0.0509 96:-0.04104 97:-0.04096 98:0.00596 99:0.02511 100:-0.035 101:-0.03866 102:0.01059 103:0.02165 104:0.04022 105:-0.06179 106:0.02532 107:-0.02685 108:-0.02575 109:0.00062 110:0.03198 111:-0.02064 112:-0.01463 113:0.06436 114:-0.03632 115:0.02131 116:-0.01692 117:-0.01507 118:0.02844 119:-0.06734 120:0.02594 121:-0.00014 122:0.00618 123:-0.02308 124:-0.03163 125:0.06547 126:0.01204 127:0.02537 128:0.05116 129:-0.00681 130:0.04156 131:0.01353 132:0.12658 133:0.03745 134:-0.06082 135:0.01338 136:0.00286 137:-0.00107 138:0.08725 139:-0.02349 140:-0.03984 141:0.04146 142:0.01746 143:0.00319 144:0.00721 145:0.05658 146:0.05958 147:0.02411 148:0.04264 149:0.01079 150:-0.03155 151:0.05059 152:-0.02504 153:-0.01761 154:0.04696 155:-0.00741 156:0.0108 157:-0.00819 158:0.03491 159:-0.02278 160:-0.00656 161:0.0309 162:0.02959 163:-0.07787 164:0.05714 165:-0.0925 166:-0.01215 167:0.05952 168:-0.00607 169:-0.02598 170:0.03224 171:-0.03877 172:-0.01303 173:-0.04472 174:-0.09491 175:-0.01853 176:-0.00592 177:-0.02986 178:0.04664 179:-0.02582 180:0.01992 181:0.01873 182:0.05761 183:0.07455 184:0.02098 185:-0.02926 186:-0.03177 187:0.01288 188:0.03923 189:-0.02364 190:-0.00803 191:0.01774 192:-0.02147 193:-0.05536 194:0.09623 195:-0.00462 196:0.01809 197:0.04175 198:-0.0747 199:-0.0294 200:0.00817 201:-0.04505 202:-0.03884 203:0.06193 204:-0.04165 205:-0.02592 206:0.01708 207:-0.05304 208:0.01057 209:-0.05751 210:-0.02712 211:0.02101 212:0.07379 213:0.06396 214:0.01728 215:-0.06422 216:-0.0388 217:0.03011 218:0.011 219:-0.01166 220:-0.03876 221:-0.01747 222:0.0067 223:0.02389 224:0.03245 225:0.00898 226:-0.01106 227:-0.01377 228:0.10665 229:-0.02419 230:0.02285 231:-0.01584 232:0.04275 233:0.14737 234:0.02594 235:0.0097 236:0.01643 237:-0.02389 238:0.00024 239:-0.07666 240:0.11683 241:-0.00784 242:0.06313 243:0.05789 244:0.02528 245:-0.03721 246:-0.01634 247:0.04965 248:-0.02109 249:0.03346 250:-0.02707 251:-0.00629 252:-0.00174 253:-0.00688 254:0.01043 255:-0.04356 256:-0.01951 257:0.031 258:0.05027 259:0.05413 260:-0.01614 261:0.02021 262:-0.0052 263:0.03239 264:0.00782 265:0.0505 266:0.06216 267:-0.05625 268:0.00722 269:-0.09324 270:0.00902 271:-0.05231 272:-0.00281 273:0.00374 274:0.01336 275:-0.00497 276:-0.01411 277:0.05845 278:0.01664 279:-0.04128 280:-0.02438 281:-0.00067 282:-0.02548 283:-0.01257 284:0.02584 285:-0.01432 286:-0.01391 287:0.00316 288:-0.06437 289:-0.0266 290:0.02884 291:0.03718 292:-0.00966 293:0.00133 294:0.00642 295:0.00352 296:0.07843 297:0.01288 298:0.03643 299:-0.00396 300:0.00116 301:0.05174 302:-0.02007 303:0.00586 304:0.05802 305:-0.00564 306:-0.02608 307:-0.05089 308:-0.02432 309:0.03471 310:0.09419 311:-0.0164 312:-0.03577 313:0.03634 314:-0.03315 315:-0.00829 316:-0.00468 317:-0.02749 318:0.03568 319:-0.04091 320:-0.02925 321:-0.01583 322:-0.08444 323:-0.03721 324:-0.0052 325:-0.04504 326:0.07173 327:0.00289 328:0.05375 329:-0.04286 330:-0.08386 331:-0.03579 332:0.02635 333:-0.01917 334:-0.02241 335:0.04241 336:0.03397 337:0.01435 338:-0.03908 339:-0.02864 340:0.02916 341:-0.02105 342:0.03472 343:0.02472 344:0.0274 345:-0.0002 346:0.04808 347:-0.03882 348:-0.10374 349:0.05612 350:-0.0149 351:0.0473 352:0.02637 353:0.01806 354:-0.01951 355:-0.01153 356:-0.02526 357:-0.06538 358:0.04506 359:-0.03403 360:-0.00059 361:-0.02268 362:0.04005 363:-0.08237 364:0.00536 365:0.02153 366:-0.01164 367:0.10399 368:0.00978 369:-0.0204 370:0.02681 371:-0.01083 372:-0.01851 373:0.07897 374:0.01299 375:0.037 376:0.02782 377:-0.08659 378:0.00901 379:0.03811 380:0.02012 381:0.00638 382:0.01422 383:-0.02823 384:0.03003 385:-0.09528 386:0.06979 387:-0.0083 388:-0.00758 389:-0.05148 390:0.01333 391:-0.026 392:0.04939 393:0.00996 394:0.02124 395:0.04839 396:0.03752 397:0.02552 398:-0.06752 399:-0.05018 400:0.05658 401:0.04866 402:-0.06024 403:-0.03515 404:-0.01727 405:0.03894 406:-0.01261 407:0.00708 408:-0.04791 409:0.05078 410:-0.02658 411:-0.03677 412:-0.03327 413:-0.00213 414:0.02439 415:0.03491 416:-0.02529 417:-0.0014 418:-0.08275 419:0.06853 420:-0.03386 421:-0.02388 422:-0.04945 423:-0.09177 424:0.04351 425:-0.01234 426:0.05646 427:-0.02097 428:0.02803 429:0.07633 430:-0.0435 431:-0.02681 432:-0.06763 433:-0.00442 434:-0.01611 435:0.08469 436:0.048 437:0.08761 438:0.02949 439:0.04769 440:0.04036 441:-0.0012 442:-0.01115 443:-0.00078 444:-0.0123 445:-0.06651 446:-0.05869 447:0.02065 448:0.00269 449:0.00342 450:-0.00124 451:-0.05936 452:-0.06075 453:0.00655 454:0.04632 455:0.04637 456:-0.04171 457:-0.10226 458:0.00678 459:0.01507 460:-0.01511 461:-0.01949 462:-0.09963 463:-0.06232 464:0.03222 465:-0.01368 466:0.03985 467:0.09665 468:0.0261 469:-0.01833 470:0.04829 471:0.00528 472:0.01344 473:0.01578 474:0.01321 475:-0.06646 476:0.0238 477:-0.03158 478:-0.05671 479:-0.07055 480:-0.03269 481:-0.02771 482:-0.02362 483:-0.0099 484:-0.07696 485:0.09361 486:-0.02552 487:0.0266 488:-0.00917 489:-0.06728 490:-0.11783 491:0.04942 492:0.01593 493:-0.06482 494:0.03784 495:0.0151 496:0.03912 497:-0.04086 498:-0.05825 499:-0.00705 500:-0.01264 501:0.0303 502:0.03428 503:0.06916 504:0.007 505:-0.05701 506:0.04094 507:-0.0077 508:-0.01372 509:-0.00596 510:0.02084 511:0.04808 
1 0.39699334167147687 1 0.66427327486024568 0.52779797087435576 0.99352059437593199 0.79472006648387683 0.61506172942536042 1 0.54452222048389043 0.64577982475158524 1 0.11100569775758461 0:-0.02697 1:-0.04759 2:0.04431 3:-0.11354 4:0.03038 5:0.04866 6:0.00974 7:-0.00663 8:-0.02774 9:0.02625 10:-0.06087 11:-0.0166 12:-0.0576 13:-0.0578 14:0.01299 15:-0.00235 16:0.02964 17:0.00403 18:0.00815 19:0.00915 20:-0.00192 21:-0.03385 22:0.02072 23:-0.04204 24:-0.06194 25:0.02237 26:-0.09934 27:-0.02764 28:-0.06372 29:0.05425 30:0.05705 31:-0.07342 32:-0.02058 33:-0.01861 34:-0.02121 35:0.00197 36:-0.05099 37:-0.01213 38:0.0424 39:0.06466 40:-0.01817 41:0.03144 42:0.0038 43:-0.03794 44:-0.01239 45:0.02545 46:0.01392 47:-0.0379 48:-0.00876 49:0.09471 50:0.01603 51:0.0011 52:0.00923 53:0.05111 54:0.00097 55:0.09169 56:0.04999 57:-0.03106 58:0.07922 59:0.01036 60:-0.00974 61:-0.0364 62:-0.03033 63:0.00586 64:0.04466 65:0.00332 66:-0.04177 67:0.04526 68:5e-05 69:0.01987 70:0.09309 71:0.1184 72:0.09016 73:0.01603 74:-0.06189 75:0.04075 76:-0.00224 77:-0.00218 78:-0.07373 79:0.00472 80:0.02143 81:-0.05451 82:-0.04784 83:0.01559 84:0.00315 85:0.00086 86:0.00222 87:-0.08815 88:0.02106 89:0.00827 90:0.01259 91:-0.06821 92:-0.05169 93:-0.13909 94:-0.02515 95:-0.00297 96:-0.00294 97:-0.03185 98:0.03062 99:0.05478 100:0.00481 101:-0.02803 102:-0.00208 103:0.05484 104:0.04141 105:-0.02691 106:0.00795 107:-0.06838 108:-0.00867 109:0.02398 110:-0.04018 111:0.01247 112:-0.10247 113:0.02736 114:-0.06069 115:0.02827 116:-0.06322 117:-0.02147 118:0.10566 119:-0.03559 120:-0.01389 121:0.02768 122:-0.01814 123:-0.01244 124:-0.00156 125:0.03466 126:0.00015 127:0.07357 128:0.09737 129:-0.02306 130:0.0201 131:-0.03854 132:0.08002 133:0.0314 134:-0.03112 135:0.00899 136:0.02655 137:0.01543 138:0.04749 139:-0.02411 140:0.02173 141:-0.04497 142:0.00605 143:-0.01546 144:-0.00885 145:0.15354 146:0.06581 147:0.01851 148:0.00521 149:-0.00893 150:-0.0186 151:0.09394 152:-0.01128 153:-0.02355 154:0.05347 155:-0.05044 156:-0.01385 157:-0.03172 158:0.0305 159:-0.06034 160:-0.0209 161:0.02215 162:0.0298 163:-0.08659 164:0.04298 165:-0.03849 166:-0.01284 167:0.03582 168:-0.03355 169:-0.03611 170:-0.04594 171:-0.00795 172:0.00767 173:-0.00772 174:-0.04266 175:-0.05017 176:0.00314 177:-0.05778 178:0.07394 179:-0.04778 180:0.03726 181:-0.01363 182:0.07047 183:0.09114 184:-0.00375 185:-0.02181 186:-0.01466 187:-0.01034 188:0.05511 189:-0.02887 190:0.04301 191:-0.00664 192:0.0194 193:0.01083 194:0.02748 195:0.03663 196:-0.04807 197:0.02614 198:-0.05292 199:-0.08397 200:-0.00314 201:-0.07432 202:-0.03337 203:0.07977 204:-0.00709 205:0.03457 206:0.00942 207:-0.04424 208:-0.0001 209:-0.03949 210:-0.0075 211:0.01338 212:0.05017 213:0.06971 214:0.04015 215:-0.0921 216:-0.05706 217:0.03786 218:0.00472 219:-0.01972 220:-0.06314 221:0.01853 222:0.03156 223:0.00727 224:-0.01288 225:0.05366 226:-0.00639 227:-0.01698 228:0.07272 229:0.02597 230:-0.00399 231:-0.00095 232:0.03482 233:0.10294 234:0.05457 235:-0.00481 236:0.04471 237:-0.01215 238:0.00906 239:-0.05629 240:0.06786 241:0.03081 242:0.00728 243:0.04262 244:-0.00649 245:-0.02525 246:-0.05213 247:0.03418 248:-0.03427 249:0.02725 250:0.01794 251:-0.01667 252:-0.01305 253:0.01948 254:-0.01014 255:-0.01798 256:0.00572 257:0.04069 258:0.0875 259:0.04838 260:-0.03003 261:0.0065 262:0.00318 263:0.01773 264:-3e-05 265:0.06019 266:0.04128 267:0.00911 268:-0.03192 269:-0.07138 270:0.00598 271:-0.02729 272:0.02668 273:0.03565 274:-0.00886 275:0.00105 276:-0.00697 277:0.06112 278:0.01889 279:0.00477 280:-0.02887 281:0.05604 282:0.01734 283:-0.06344 284:0.02375 285:0.03463 286:-0.01974 287:0.00329 288:-0.0231 289:-0.03213 290:0.05286 291:0.05405 292:-0.04329 293:-0.02029 294:0.01601 295:-0.04771 296:0.07057 297:-0.00138 298:0.04827 299:0.02896 300:0.03315 301:0.03324 302:-0.00426 303:0.0547 304:0.08335 305:-0.02598 306:0.00993 307:-0.01759 308:0.02918 309:0.00512 310:0.1075 311:-0.07805 312:0.02793 313:0.05296 314:-0.05646 315:-0.01495 316:-0.04142 317:-0.02634 318:0.05591 319:-0.07477 320:-0.01542 321:-0.00526 322:-0.0291 323:-0.03693 324:0.02917 325:-0.03407 326:0.03077 327:-0.01259 328:0.05561 329:0.02155 330:-0.06367 331:-0.05844 332:0.03585 333:-0.03159 334:-0.00568 335:0.05956 336:0.02969 337:0.0342 338:-0.00706 339:0.00537 340:0.01573 341:-0.02088 342:0.01256 343:0.00691 344:-0.00112 345:-0.00018 346:0.0497 347:-0.05208 348:-0.0515 349:0.01994 350:-0.00678 351:0.05069 352:0.02079 353:0.04154 354:-0.05941 355:-0.00067 356:-0.05588 357:-0.09263 358:0.00752 359:-0.04962 360:-0.01907 361:-0.04356 362:0.03229 363:-0.07224 364:0.00623 365:0.03996 366:-0.07376 367:0.05886 368:-0.03292 369:0.02332 370:-0.00845 371:0.00614 372:-0.02369 373:0.04623 374:0.00551 375:-0.01082 376:-0.06851 377:-0.04441 378:-0.02446 379:0.03017 380:-0.00314 381:0.00035 382:-0.01952 383:0.03201 384:0.04928 385:-0.07708 386:0.02584 387:-0.00036 388:-0.02602 389:-0.02661 390:0.01922 391:0.03123 392:0.02814 393:0.02972 394:0.04664 395:0.01164 396:0.01591 397:0.07736 398:-0.03246 399:0.02002 400:0.07366 401:0.07427 402:-0.03078 403:-0.029 404:0.062 405:0.12268 406:-0.02193 407:0.01062 408:-0.04227 409:0.05205 410:-0.01837 411:-0.00949 412:-0.03576 413:0.0123 414:0.04987 415:-0.04882 416:-0.0194 417:-0.00804 418:-0.04349 419:0.05246 420:-0.07219 421:-0.04959 422:-0.07177 423:-0.11803 424:0.04313 425:-0.03128 426:0.08268 427:-0.00072 428:0.02021 429:0.05312 430:-0.04839 431:-0.06258 432:-0.0454 433:3e-05 434:-0.09032 435:0.10296 436:0.05186 437:0.0428 438:0.0122 439:0.03115 440:0.05117 441:-0.00457 442:0.00403 443:0.02076 444:-0.05134 445:-0.05049 446:-0.05985 447:0.02411 448:-0.04706 449:0.03978 450:0.02996 451:-0.04994 452:-0.01961 453:-0.01387 454:0.04061 455:0.05897 456:-0.05647 457:-0.06578 458:-0.01443 459:-0.01472 460:-0.07253 461:-0.03461 462:-0.05262 463:-0.06989 464:0.01678 465:-0.01958 466:0.0441 467:0.09967 468:0.0208 469:0.04172 470:0.09795 471:-0.01909 472:-0.00622 473:0.02996 474:0.00452 475:-0.00225 476:-0.01435 477:-0.04666 478:-0.05154 479:-0.04845 480:-0.04262 481:-0.02204 482:-0.10934 483:0.00286 484:-0.04962 485:0.01263 486:0.02538 487:-0.0083 488:-0.00218 489:-0.04017 490:-0.12931 491:0.04747 492:-0.0228 493:-0.05341 494:0.01858 495:-0.04694 496:0.05935 497:-0.00869 498:-0.05018 499:0.02769 500:-0.03543 501:0.04076 502:0.04731 503:0.05886 504:-0.02964 505:-0.06299 506:-0.01146 507:-0.02127 508:-0.0122 509:0.01199 510:0.02761 511:0.06054 
